<?xml version="1.0"?>
<MethodSetup Method="MLP::MLP1">
  <GeneralInfo>
    <Info name="TMVA Release" value="4.2.0 [262656]"/>
    <Info name="ROOT Release" value="5.34/18 [336402]"/>
    <Info name="Creator" value="zxb0111"/>
    <Info name="Date" value="Tue Dec  2 15:34:19 2014"/>
    <Info name="Host" value="Linux localhost.localdomain 2.6.32-431.17.1.el6.x86_64 #1 SMP Wed May 7 14:14:17 CDT 2014 x86_64 x86_64 x86_64 GNU/Linux"/>
    <Info name="Dir" value="/home/zxb0111/seminar"/>
    <Info name="Training events" value="35264"/>
    <Info name="TrainingTime" value="1.82225198e+02"/>
    <Info name="AnalysisType" value="Classification"/>
  </GeneralInfo>
  <Options>
    <Option name="NCycles" modified="Yes">600</Option>
    <Option name="HiddenLayers" modified="Yes">N+5</Option>
    <Option name="NeuronType" modified="Yes">sigmoid</Option>
    <Option name="RandomSeed" modified="No">1</Option>
    <Option name="EstimatorType" modified="No">MSE</Option>
    <Option name="NeuronInputType" modified="No">sum</Option>
    <Option name="V" modified="Yes">False</Option>
    <Option name="VerbosityLevel" modified="No">Default</Option>
    <Option name="VarTransform" modified="Yes">N</Option>
    <Option name="H" modified="Yes">False</Option>
    <Option name="CreateMVAPdfs" modified="No">False</Option>
    <Option name="IgnoreNegWeightsInTraining" modified="No">False</Option>
    <Option name="TrainingMethod" modified="No">BP</Option>
    <Option name="LearningRate" modified="No">2.000000e-02</Option>
    <Option name="DecayRate" modified="No">1.000000e-02</Option>
    <Option name="TestRate" modified="Yes">5</Option>
    <Option name="EpochMonitoring" modified="No">False</Option>
    <Option name="Sampling" modified="No">1.000000e+00</Option>
    <Option name="SamplingEpoch" modified="No">1.000000e+00</Option>
    <Option name="SamplingImportance" modified="No">1.000000e+00</Option>
    <Option name="SamplingTraining" modified="No">True</Option>
    <Option name="SamplingTesting" modified="No">False</Option>
    <Option name="ResetStep" modified="No">50</Option>
    <Option name="Tau" modified="No">3.000000e+00</Option>
    <Option name="BPMode" modified="No">sequential</Option>
    <Option name="BatchSize" modified="No">-1</Option>
    <Option name="ConvergenceImprove" modified="No">1.000000e-30</Option>
    <Option name="ConvergenceTests" modified="No">-1</Option>
    <Option name="UseRegulator" modified="Yes">False</Option>
    <Option name="UpdateLimit" modified="No">10000</Option>
    <Option name="CalculateErrors" modified="No">False</Option>
    <Option name="WeightRange" modified="No">1.000000e+00</Option>
  </Options>
  <Variables NVar="8">
    <Variable VarIndex="0" Expression="Jet.PT" Label="Jet.PT" Title="Jet.PT" Unit="" Internal="Jet.PT" Type="F" Min="4.73000002e+00" Max="2.14732007e+03"/>
    <Variable VarIndex="1" Expression="Jet.Eta" Label="Jet.Eta" Title="Jet.Eta" Unit="" Internal="Jet.Eta" Type="F" Min="-3.99399996e+00" Max="3.99799991e+00"/>
    <Variable VarIndex="2" Expression="Jet.Phi" Label="Jet.Phi" Title="Jet.Phi" Unit="" Internal="Jet.Phi" Type="F" Min="0.00000000e+00" Max="6.28299999e+00"/>
    <Variable VarIndex="3" Expression="Jet.Mass" Label="Jet.Mass" Title="Jet.Mass" Unit="" Internal="Jet.Mass" Type="F" Min="0.00000000e+00" Max="2.51460007e+02"/>
    <Variable VarIndex="4" Expression="Jet.Ntrk" Label="Jet.Ntrk" Title="Jet.Ntrk" Unit="" Internal="Jet.Ntrk" Type="F" Min="0.00000000e+00" Max="7.70000000e+01"/>
    <Variable VarIndex="5" Expression="Jet.EhadOverEem" Label="Jet.EhadOverEem" Title="Jet.EhadOverEem" Unit="" Internal="Jet.EhadOverEem" Type="F" Min="0.00000000e+00" Max="9.99000000e+02"/>
    <Variable VarIndex="6" Expression="MissingET.Phi" Label="MissingET.Phi" Title="MissingET.Phi" Unit="" Internal="MissingET.Phi" Type="F" Min="0.00000000e+00" Max="6.28299999e+00"/>
    <Variable VarIndex="7" Expression="MissingET.MET" Label="MissingET.MET" Title="MissingET.MET" Unit="" Internal="MissingET.MET" Type="F" Min="3.57999992e+00" Max="1.58547998e+03"/>
  </Variables>
  <Spectators NSpec="0"/>
  <Classes NClass="2">
    <Class Name="Signal" Index="0"/>
    <Class Name="Background" Index="1"/>
  </Classes>
  <Transformations NTransformations="1">
    <Transform Name="Normalize">
      <Selection>
        <Input NInputs="8">
          <Input Type="Variable" Label="Jet.PT" Expression="Jet.PT"/>
          <Input Type="Variable" Label="Jet.Eta" Expression="Jet.Eta"/>
          <Input Type="Variable" Label="Jet.Phi" Expression="Jet.Phi"/>
          <Input Type="Variable" Label="Jet.Mass" Expression="Jet.Mass"/>
          <Input Type="Variable" Label="Jet.Ntrk" Expression="Jet.Ntrk"/>
          <Input Type="Variable" Label="Jet.EhadOverEem" Expression="Jet.EhadOverEem"/>
          <Input Type="Variable" Label="MissingET.Phi" Expression="MissingET.Phi"/>
          <Input Type="Variable" Label="MissingET.MET" Expression="MissingET.MET"/>
        </Input>
        <Output NOutputs="8">
          <Output Type="Variable" Label="Jet.PT" Expression="Jet.PT"/>
          <Output Type="Variable" Label="Jet.Eta" Expression="Jet.Eta"/>
          <Output Type="Variable" Label="Jet.Phi" Expression="Jet.Phi"/>
          <Output Type="Variable" Label="Jet.Mass" Expression="Jet.Mass"/>
          <Output Type="Variable" Label="Jet.Ntrk" Expression="Jet.Ntrk"/>
          <Output Type="Variable" Label="Jet.EhadOverEem" Expression="Jet.EhadOverEem"/>
          <Output Type="Variable" Label="MissingET.Phi" Expression="MissingET.Phi"/>
          <Output Type="Variable" Label="MissingET.MET" Expression="MissingET.MET"/>
        </Output>
      </Selection>
      <Class ClassIndex="0">
        <Ranges>
          <Range Index="0" Min="5.0000000000000000e+00" Max="2.1473200683593750e+03"/>
          <Range Index="1" Min="-3.9809999465942383e+00" Max="3.9979999065399170e+00"/>
          <Range Index="2" Min="0.0000000000000000e+00" Max="6.2829999923706055e+00"/>
          <Range Index="3" Min="0.0000000000000000e+00" Max="2.5146000671386719e+02"/>
          <Range Index="4" Min="0.0000000000000000e+00" Max="6.0000000000000000e+01"/>
          <Range Index="5" Min="0.0000000000000000e+00" Max="9.9900000000000000e+02"/>
          <Range Index="6" Min="0.0000000000000000e+00" Max="6.2829999923706055e+00"/>
          <Range Index="7" Min="3.5799999237060547e+00" Max="1.5854799804687500e+03"/>
        </Ranges>
      </Class>
      <Class ClassIndex="1">
        <Ranges>
          <Range Index="0" Min="4.7300000190734863e+00" Max="8.1752001953125000e+02"/>
          <Range Index="1" Min="-3.9939999580383301e+00" Max="3.9969999790191650e+00"/>
          <Range Index="2" Min="0.0000000000000000e+00" Max="6.2829999923706055e+00"/>
          <Range Index="3" Min="0.0000000000000000e+00" Max="1.8416999816894531e+02"/>
          <Range Index="4" Min="0.0000000000000000e+00" Max="7.7000000000000000e+01"/>
          <Range Index="5" Min="0.0000000000000000e+00" Max="9.9900000000000000e+02"/>
          <Range Index="6" Min="1.0000000474974513e-03" Max="6.2820000648498535e+00"/>
          <Range Index="7" Min="1.0001000213623047e+02" Max="6.6265002441406250e+02"/>
        </Ranges>
      </Class>
      <Class ClassIndex="2">
        <Ranges>
          <Range Index="0" Min="4.7300000190734863e+00" Max="2.1473200683593750e+03"/>
          <Range Index="1" Min="-3.9939999580383301e+00" Max="3.9979999065399170e+00"/>
          <Range Index="2" Min="0.0000000000000000e+00" Max="6.2829999923706055e+00"/>
          <Range Index="3" Min="0.0000000000000000e+00" Max="2.5146000671386719e+02"/>
          <Range Index="4" Min="0.0000000000000000e+00" Max="7.7000000000000000e+01"/>
          <Range Index="5" Min="0.0000000000000000e+00" Max="9.9900000000000000e+02"/>
          <Range Index="6" Min="0.0000000000000000e+00" Max="6.2829999923706055e+00"/>
          <Range Index="7" Min="3.5799999237060547e+00" Max="1.5854799804687500e+03"/>
        </Ranges>
      </Class>
    </Transform>
  </Transformations>
  <MVAPdfs/>
  <Weights>
    <Layout NLayers="3">
      <Layer Index="0" NNeurons="9">
        <Neuron NSynapses="13">
          -3.1923191671240836e-01 2.2226777594096996e+00 1.0174544405467788e-01 3.3337305271473245e+00 -1.0683365058958261e+00 8.8911990965881793e-01 -1.4676093434604982e+00 4.1761188384678531e+00 -2.1349418392206385e-01 -4.4657150872428337e+00 -8.7743706742081240e-01 8.6659756136443167e-02 -2.9458253420705760e+00 
        </Neuron>
        <Neuron NSynapses="13">
          -1.1783348484406029e+00 -5.1368134576033918e-02 1.9710157068976983e-02 -8.9029683712768037e-02 1.5287403036136364e+00 -2.0309185812458611e-01 -8.6301591110147971e-02 -4.1250351732055018e-02 -2.7587073923998573e-01 -7.1261359223961832e-02 4.1218259137873935e-02 -1.2677582789821426e-01 -2.5447572726462316e-02 
        </Neuron>
        <Neuron NSynapses="13">
          -1.5418944100217078e-02 -9.9444449001013890e-01 -4.3763559439973356e+00 -6.0466371673891094e-02 -3.4650137214669213e-01 2.9226728917644764e+00 -1.5758959209256492e-03 -5.7977040353138096e-02 3.6753490075311102e-01 1.7948285542402562e-02 -2.1228310600638962e+00 4.5026588994726904e+00 4.2630901905305690e-02 
        </Neuron>
        <Neuron NSynapses="13">
          8.6363174822452771e-01 1.9420690962416503e+00 -4.5739226785851994e-01 8.2151174191844722e-01 1.7842671312128768e+00 -4.9622306769145352e-01 1.4626805826199492e+00 1.3184152592936846e+00 1.2647734311101575e+00 5.1506877879132751e-01 5.3155545921308200e-01 2.1451186859024515e-01 -1.8042863125664481e+00 
        </Neuron>
        <Neuron NSynapses="13">
          -1.0282369919794756e+00 1.0682020794239928e+00 -1.7709346279646390e-02 3.4374264137099425e-01 -6.4970091325284995e-01 -7.3427792943089520e-01 -2.9623393220798838e-01 8.4280992769747154e-02 -7.5282743312294231e-01 -4.7487763679907552e-01 8.2352320428950543e-01 6.3035220334203657e-01 4.7459298740258682e-01 
        </Neuron>
        <Neuron NSynapses="13">
          4.3834028316282150e-02 9.0710058803018334e-01 1.1997852173413421e+00 1.1236959933942094e+00 5.5961502711861316e-02 -1.7285607757159882e-01 1.7920090790519940e+00 6.7818887674117123e-01 2.0439322315352468e+00 3.9233548641814919e+00 -8.6225696354233594e-01 -2.1907122831425676e+00 -7.6893950883979145e-01 
        </Neuron>
        <Neuron NSynapses="13">
          1.0331947706775557e+00 5.0578163713452540e-01 4.3331735314205249e+00 -5.5699823055390729e-02 8.8336199352940636e-01 -2.9620730609168473e+00 -1.2986245023523454e-01 -2.6210085573843078e-02 1.0608466660364482e+00 -1.8857645818610441e-01 1.9523450808017924e+00 -4.7642638147153988e+00 4.5154090616920828e-02 
        </Neuron>
        <Neuron NSynapses="13">
          2.4457678384035436e-01 7.3669607453003383e-01 4.8192706020005166e-01 -4.2253817055218121e+00 2.5401198383149692e+00 3.5001848607494548e+00 -8.4243090214091456e+00 -1.1428858561407248e+01 8.9613796965416614e-01 -7.4192720611763132e+00 -3.6428686443154290e+00 -1.9997798854534337e+00 1.5457757899081752e+01 
        </Neuron>
        <Neuron NSynapses="13">
          -1.8236319709181339e+00 9.8452590256504513e-01 -2.4078844256336325e+00 -4.4439532151296834e-01 -6.2237420278670241e-01 8.2499152827428024e-01 -3.6037868457912667e+00 -4.4897963978935707e+00 -5.1842305340158046e-01 -4.5607988888388800e+00 -1.3244798642875411e+00 2.0748410080475912e+00 7.3283381454728644e+00 
        </Neuron>
      </Layer>
      <Layer Index="1" NNeurons="14">
        <Neuron NSynapses="1">
          -2.6204982301707858e-01 
        </Neuron>
        <Neuron NSynapses="1">
          4.3876384524502254e-01 
        </Neuron>
        <Neuron NSynapses="1">
          -1.3201882767384236e+00 
        </Neuron>
        <Neuron NSynapses="1">
          -2.1592709624212483e+00 
        </Neuron>
        <Neuron NSynapses="1">
          -3.9026072947154183e-01 
        </Neuron>
        <Neuron NSynapses="1">
          -1.0943193931178721e+00 
        </Neuron>
        <Neuron NSynapses="1">
          9.7760355689115253e-01 
        </Neuron>
        <Neuron NSynapses="1">
          3.9998741743736055e+00 
        </Neuron>
        <Neuron NSynapses="1">
          -2.0799571922648918e-01 
        </Neuron>
        <Neuron NSynapses="1">
          -7.4909174445140936e-01 
        </Neuron>
        <Neuron NSynapses="1">
          -9.7038689666155420e-01 
        </Neuron>
        <Neuron NSynapses="1">
          -1.2415066172872338e+00 
        </Neuron>
        <Neuron NSynapses="1">
          3.0114063363707220e+00 
        </Neuron>
        <Neuron NSynapses="1">
          5.3918675215043832e-01 
        </Neuron>
      </Layer>
      <Layer Index="2" NNeurons="1">
        <Neuron NSynapses="0"/>
      </Layer>
    </Layout>
  </Weights>
</MethodSetup>
