<?xml version="1.0"?>
<MethodSetup Method="MLP::1Layer20Nodes">
  <GeneralInfo>
    <Info name="TMVA Release" value="4.2.0 [262656]"/>
    <Info name="ROOT Release" value="5.34/18 [336402]"/>
    <Info name="Creator" value="zxb0111"/>
    <Info name="Date" value="Sat Dec  6 22:30:41 2014"/>
    <Info name="Host" value="Linux localhost.localdomain 2.6.32-431.17.1.el6.x86_64 #1 SMP Wed May 7 14:14:17 CDT 2014 x86_64 x86_64 x86_64 GNU/Linux"/>
    <Info name="Dir" value="/home/zxb0111/seminar"/>
    <Info name="Training events" value="34086"/>
    <Info name="TrainingTime" value="2.40112270e+02"/>
    <Info name="AnalysisType" value="Classification"/>
  </GeneralInfo>
  <Options>
    <Option name="NCycles" modified="Yes">600</Option>
    <Option name="HiddenLayers" modified="Yes">20</Option>
    <Option name="NeuronType" modified="Yes">sigmoid</Option>
    <Option name="RandomSeed" modified="No">1</Option>
    <Option name="EstimatorType" modified="No">MSE</Option>
    <Option name="NeuronInputType" modified="No">sum</Option>
    <Option name="V" modified="No">False</Option>
    <Option name="VerbosityLevel" modified="No">Default</Option>
    <Option name="VarTransform" modified="Yes">N</Option>
    <Option name="H" modified="No">False</Option>
    <Option name="CreateMVAPdfs" modified="No">False</Option>
    <Option name="IgnoreNegWeightsInTraining" modified="No">False</Option>
    <Option name="TrainingMethod" modified="No">BP</Option>
    <Option name="LearningRate" modified="No">2.000000e-02</Option>
    <Option name="DecayRate" modified="No">1.000000e-02</Option>
    <Option name="TestRate" modified="Yes">5</Option>
    <Option name="EpochMonitoring" modified="No">False</Option>
    <Option name="Sampling" modified="No">1.000000e+00</Option>
    <Option name="SamplingEpoch" modified="No">1.000000e+00</Option>
    <Option name="SamplingImportance" modified="No">1.000000e+00</Option>
    <Option name="SamplingTraining" modified="No">True</Option>
    <Option name="SamplingTesting" modified="No">False</Option>
    <Option name="ResetStep" modified="No">50</Option>
    <Option name="Tau" modified="No">3.000000e+00</Option>
    <Option name="BPMode" modified="No">sequential</Option>
    <Option name="BatchSize" modified="No">-1</Option>
    <Option name="ConvergenceImprove" modified="No">1.000000e-30</Option>
    <Option name="ConvergenceTests" modified="No">-1</Option>
    <Option name="UseRegulator" modified="Yes">False</Option>
    <Option name="UpdateLimit" modified="No">10000</Option>
    <Option name="CalculateErrors" modified="No">False</Option>
    <Option name="WeightRange" modified="No">1.000000e+00</Option>
  </Options>
  <Variables NVar="8">
    <Variable VarIndex="0" Expression="Jet.PT" Label="Jet.PT" Title="Jet.PT" Unit="" Internal="Jet.PT" Type="F" Min="4.73000002e+00" Max="2.54340991e+03"/>
    <Variable VarIndex="1" Expression="Jet.Eta" Label="Jet.Eta" Title="Jet.Eta" Unit="" Internal="Jet.Eta" Type="F" Min="-3.99300003e+00" Max="3.99099994e+00"/>
    <Variable VarIndex="2" Expression="Jet.Phi" Label="Jet.Phi" Title="Jet.Phi" Unit="" Internal="Jet.Phi" Type="F" Min="0.00000000e+00" Max="6.28299999e+00"/>
    <Variable VarIndex="3" Expression="Jet.Mass" Label="Jet.Mass" Title="Jet.Mass" Unit="" Internal="Jet.Mass" Type="F" Min="0.00000000e+00" Max="2.58730011e+02"/>
    <Variable VarIndex="4" Expression="Jet.Ntrk" Label="Jet.Ntrk" Title="Jet.Ntrk" Unit="" Internal="Jet.Ntrk" Type="F" Min="0.00000000e+00" Max="6.10000000e+01"/>
    <Variable VarIndex="5" Expression="Jet.EhadOverEem" Label="Jet.EhadOverEem" Title="Jet.EhadOverEem" Unit="" Internal="Jet.EhadOverEem" Type="F" Min="0.00000000e+00" Max="9.99000000e+02"/>
    <Variable VarIndex="6" Expression="MissingET.Phi" Label="MissingET.Phi" Title="MissingET.Phi" Unit="" Internal="MissingET.Phi" Type="F" Min="0.00000000e+00" Max="6.28299999e+00"/>
    <Variable VarIndex="7" Expression="MissingET.MET" Label="MissingET.MET" Title="MissingET.MET" Unit="" Internal="MissingET.MET" Type="F" Min="1.00010002e+02" Max="1.58547998e+03"/>
  </Variables>
  <Spectators NSpec="0"/>
  <Classes NClass="2">
    <Class Name="Signal" Index="0"/>
    <Class Name="Background" Index="1"/>
  </Classes>
  <Transformations NTransformations="1">
    <Transform Name="Normalize">
      <Selection>
        <Input NInputs="8">
          <Input Type="Variable" Label="Jet.PT" Expression="Jet.PT"/>
          <Input Type="Variable" Label="Jet.Eta" Expression="Jet.Eta"/>
          <Input Type="Variable" Label="Jet.Phi" Expression="Jet.Phi"/>
          <Input Type="Variable" Label="Jet.Mass" Expression="Jet.Mass"/>
          <Input Type="Variable" Label="Jet.Ntrk" Expression="Jet.Ntrk"/>
          <Input Type="Variable" Label="Jet.EhadOverEem" Expression="Jet.EhadOverEem"/>
          <Input Type="Variable" Label="MissingET.Phi" Expression="MissingET.Phi"/>
          <Input Type="Variable" Label="MissingET.MET" Expression="MissingET.MET"/>
        </Input>
        <Output NOutputs="8">
          <Output Type="Variable" Label="Jet.PT" Expression="Jet.PT"/>
          <Output Type="Variable" Label="Jet.Eta" Expression="Jet.Eta"/>
          <Output Type="Variable" Label="Jet.Phi" Expression="Jet.Phi"/>
          <Output Type="Variable" Label="Jet.Mass" Expression="Jet.Mass"/>
          <Output Type="Variable" Label="Jet.Ntrk" Expression="Jet.Ntrk"/>
          <Output Type="Variable" Label="Jet.EhadOverEem" Expression="Jet.EhadOverEem"/>
          <Output Type="Variable" Label="MissingET.Phi" Expression="MissingET.Phi"/>
          <Output Type="Variable" Label="MissingET.MET" Expression="MissingET.MET"/>
        </Output>
      </Selection>
      <Class ClassIndex="0">
        <Ranges>
          <Range Index="0" Min="5.0000000000000000e+00" Max="2.5434099121093750e+03"/>
          <Range Index="1" Min="-3.9909999370574951e+00" Max="3.9909999370574951e+00"/>
          <Range Index="2" Min="0.0000000000000000e+00" Max="6.2829999923706055e+00"/>
          <Range Index="3" Min="0.0000000000000000e+00" Max="2.5873001098632812e+02"/>
          <Range Index="4" Min="0.0000000000000000e+00" Max="6.1000000000000000e+01"/>
          <Range Index="5" Min="0.0000000000000000e+00" Max="9.9900000000000000e+02"/>
          <Range Index="6" Min="0.0000000000000000e+00" Max="6.2829999923706055e+00"/>
          <Range Index="7" Min="1.0001999664306641e+02" Max="1.5854799804687500e+03"/>
        </Ranges>
      </Class>
      <Class ClassIndex="1">
        <Ranges>
          <Range Index="0" Min="4.7300000190734863e+00" Max="8.1752001953125000e+02"/>
          <Range Index="1" Min="-3.9930000305175781e+00" Max="3.9900000095367432e+00"/>
          <Range Index="2" Min="0.0000000000000000e+00" Max="6.2829999923706055e+00"/>
          <Range Index="3" Min="0.0000000000000000e+00" Max="1.5936999511718750e+02"/>
          <Range Index="4" Min="0.0000000000000000e+00" Max="5.9000000000000000e+01"/>
          <Range Index="5" Min="0.0000000000000000e+00" Max="9.9900000000000000e+02"/>
          <Range Index="6" Min="1.0000000474974513e-03" Max="6.2820000648498535e+00"/>
          <Range Index="7" Min="1.0001000213623047e+02" Max="6.6265002441406250e+02"/>
        </Ranges>
      </Class>
      <Class ClassIndex="2">
        <Ranges>
          <Range Index="0" Min="4.7300000190734863e+00" Max="2.5434099121093750e+03"/>
          <Range Index="1" Min="-3.9930000305175781e+00" Max="3.9909999370574951e+00"/>
          <Range Index="2" Min="0.0000000000000000e+00" Max="6.2829999923706055e+00"/>
          <Range Index="3" Min="0.0000000000000000e+00" Max="2.5873001098632812e+02"/>
          <Range Index="4" Min="0.0000000000000000e+00" Max="6.1000000000000000e+01"/>
          <Range Index="5" Min="0.0000000000000000e+00" Max="9.9900000000000000e+02"/>
          <Range Index="6" Min="0.0000000000000000e+00" Max="6.2829999923706055e+00"/>
          <Range Index="7" Min="1.0001000213623047e+02" Max="1.5854799804687500e+03"/>
        </Ranges>
      </Class>
    </Transform>
  </Transformations>
  <MVAPdfs/>
  <Weights>
    <Layout NLayers="3">
      <Layer Index="0" NNeurons="9">
        <Neuron NSynapses="20">
          -1.9567694562035334e+00 3.3910567341698199e+00 1.8075776129350858e+00 2.4890757408285467e+00 -2.2800397302196029e+00 -7.7472854346756137e-01 -4.5665695172622878e-01 6.1082058962939567e-01 -1.0585280437933742e+00 -2.7071400660409489e-01 -1.6206310562604098e+00 5.9697341019614858e-01 -1.5739584678248673e+00 7.7632856888190183e-01 5.0375122400096062e-01 8.6717747105605258e-01 -7.0270730613396393e-01 2.4884543851345877e+00 4.9984506716736807e-02 -2.8827397670006496e+00 
        </Neuron>
        <Neuron NSynapses="20">
          -7.4226135296871021e-01 3.9591254306249402e-01 5.7159319901290306e-01 5.1102768615140370e-01 -8.0218801013855812e-02 1.0270545221773236e-01 1.3533698842168242e+00 -2.1078003251758513e+00 -6.1972050024545522e-01 9.6334692773146740e-04 6.8767984324741793e-01 1.1708559629153803e+00 1.6231633345811525e-01 -1.9435550452922093e-01 3.0034424423366074e-01 -3.5710917313346291e-01 -9.8224792499188596e-01 8.9538204444860869e-01 -1.1583933227836938e+00 3.4963327502965921e-02 
        </Neuron>
        <Neuron NSynapses="20">
          2.5989826172064530e+00 -1.2906405282656427e-01 3.2770055964325484e-01 7.9434879751364773e-01 1.1391975893263327e-02 -1.6197540366780157e+00 3.5023776873602808e-01 2.4363043868359753e-02 2.6676153204698525e+00 1.0425233531715588e+00 1.5812885890424477e+00 2.2489781495926788e+00 -7.4521574142290670e-01 2.9334357114928795e+00 -1.7268960569513276e+00 -7.4923926951327058e-01 -2.8466580548808169e+00 -1.1859844553625243e+00 5.1988099608640315e-01 4.2669782478127971e-02 
        </Neuron>
        <Neuron NSynapses="20">
          -1.9664825114547357e+00 -2.9679379849715531e-01 -6.7577334781838916e-02 1.4666425823258020e+00 4.7731959832271148e-01 -7.2945887538952550e-02 6.2307208796224378e-01 -1.6463097196650225e+00 5.6215765870359047e-01 -1.2957500357346846e-01 -7.8991998181064482e-01 -1.0524851641503989e+00 -7.2166397098380064e-01 1.9785487990745330e+00 2.5087347757559626e+00 -2.2203224390008661e-01 -2.2444066177391662e+00 -1.5906596514454154e+00 1.0740050948710731e+00 5.5847014166724995e-01 
        </Neuron>
        <Neuron NSynapses="20">
          4.7162935289653263e-01 8.0957613528613048e-01 1.4069462044980081e+00 -5.1107789351864918e-01 -4.9910739296071277e-01 -6.1256816934579783e-01 1.3070102689302641e+00 -1.1757935722370907e+00 -4.9436095274151048e-01 -1.2633341980638511e+00 -2.4274356330938276e-01 3.8151946710246853e-01 3.8856132654682052e-01 2.2076373490614090e-01 -9.5394807192448444e-02 1.5669159167698723e+00 -3.8013013240306232e-01 -1.1231306140584947e+00 -2.2934271393226879e+00 -7.5395152556465961e-01 
        </Neuron>
        <Neuron NSynapses="20">
          -1.6273680615618848e+00 -3.9910396165343052e+00 1.3868540514033252e+00 1.3818598057008449e+00 3.3546311408061955e+00 2.0181916448028692e+00 -6.7777890190168877e-01 -2.8345383439949218e-01 -2.2213775856576717e-02 1.2694365694990315e+00 -1.6709423057784145e+00 -1.8024818718794844e-01 3.3356687192777401e-01 5.0788944655767343e-01 1.8720026607732237e-01 2.0289498948703888e+00 -1.2105324570878599e+00 -5.9068019543996109e-01 1.3641840774472247e+00 1.5696023284118934e+00 
        </Neuron>
        <Neuron NSynapses="20">
          -2.6111201738941108e+00 -1.3663058964629929e-01 1.0177070724343342e+00 7.8421022412937968e-01 -1.2052850074653534e-02 5.5268427161453693e-01 -2.1099279048513631e-01 2.4769397010319988e-01 -2.6969125080141523e+00 4.4978162699273100e-01 2.8735801776371927e-02 -2.6653502090077730e+00 6.9901106794441681e-01 -2.8890473114345263e+00 -7.2936921363338722e-02 7.7956546546601624e-01 2.9039189487398769e+00 -1.0814121295628216e+00 1.3100558557693437e-01 -1.4651143081249177e-01 
        </Neuron>
        <Neuron NSynapses="20">
          1.4385154455724307e+00 6.0648019280976131e+00 -9.5041360052407031e-01 2.9349594258049649e-01 -5.6541867632161473e+00 2.0592790921101587e+00 1.8240718962601301e+00 7.6799695025879866e-01 4.3010188258859006e-01 1.0939630908486053e+00 -1.3487263609521369e+00 1.9895867242490192e-01 3.1267260276958053e+00 -2.8081121444803765e+00 2.8113156187508437e-01 4.4743392479095478e-01 1.6286837309928275e+00 1.2727513435607325e+00 1.1036972315933096e+00 -9.1945744003658447e+00 
        </Neuron>
        <Neuron NSynapses="20">
          1.2886081029538341e+00 4.5860554913019778e+00 1.6714018415268103e-01 2.4718354791248381e-01 -2.8207035534568128e+00 -9.6106558228876260e-01 -9.3645816641942048e-01 1.1479154174107866e+00 -1.3196787665673950e+00 -1.4744181606916205e+00 1.5550932493792669e+00 1.3772768534550508e+00 8.8345961734867445e-02 1.3437011530276983e+00 4.3554764487895398e-01 -2.1526918628395149e+00 2.2133303738416896e+00 -2.4194527711846295e-01 -4.3354551818118911e-02 -9.1894377062010353e+00 
        </Neuron>
      </Layer>
      <Layer Index="1" NNeurons="21">
        <Neuron NSynapses="1">
          -9.7447679869882542e-01 
        </Neuron>
        <Neuron NSynapses="1">
          4.8657528282693580e-01 
        </Neuron>
        <Neuron NSynapses="1">
          3.4677921037275367e-01 
        </Neuron>
        <Neuron NSynapses="1">
          -1.1842005777340583e+00 
        </Neuron>
        <Neuron NSynapses="1">
          1.2645628260222757e+00 
        </Neuron>
        <Neuron NSynapses="1">
          -5.4602953535466869e-01 
        </Neuron>
        <Neuron NSynapses="1">
          3.0211163170059263e-01 
        </Neuron>
        <Neuron NSynapses="1">
          1.1199789589167386e+00 
        </Neuron>
        <Neuron NSynapses="1">
          -1.2184516914582264e+00 
        </Neuron>
        <Neuron NSynapses="1">
          -2.1476405888425362e-01 
        </Neuron>
        <Neuron NSynapses="1">
          2.7626780645999421e-01 
        </Neuron>
        <Neuron NSynapses="1">
          4.2225518313578603e-01 
        </Neuron>
        <Neuron NSynapses="1">
          9.7266998881809674e-01 
        </Neuron>
        <Neuron NSynapses="1">
          1.0659951213553651e+00 
        </Neuron>
        <Neuron NSynapses="1">
          1.0631970341551132e-02 
        </Neuron>
        <Neuron NSynapses="1">
          -3.8720075165300483e-01 
        </Neuron>
        <Neuron NSynapses="1">
          -1.1361119147165126e+00 
        </Neuron>
        <Neuron NSynapses="1">
          1.4100575935428156e-01 
        </Neuron>
        <Neuron NSynapses="1">
          6.2351555503194178e-01 
        </Neuron>
        <Neuron NSynapses="1">
          -1.7581928109058300e+00 
        </Neuron>
        <Neuron NSynapses="1">
          1.8434243820630083e-01 
        </Neuron>
      </Layer>
      <Layer Index="2" NNeurons="1">
        <Neuron NSynapses="0"/>
      </Layer>
    </Layout>
  </Weights>
</MethodSetup>
