<?xml version="1.0"?>
<MethodSetup Method="MLP::Distro24Decrease">
  <GeneralInfo>
    <Info name="TMVA Release" value="4.2.0 [262656]"/>
    <Info name="ROOT Release" value="5.34/18 [336402]"/>
    <Info name="Creator" value="zxb0111"/>
    <Info name="Date" value="Thu Dec  4 12:02:25 2014"/>
    <Info name="Host" value="Linux localhost.localdomain 2.6.32-431.17.1.el6.x86_64 #1 SMP Wed May 7 14:14:17 CDT 2014 x86_64 x86_64 x86_64 GNU/Linux"/>
    <Info name="Dir" value="/home/zxb0111/seminar"/>
    <Info name="Training events" value="34086"/>
    <Info name="TrainingTime" value="2.91145091e+02"/>
    <Info name="AnalysisType" value="Classification"/>
  </GeneralInfo>
  <Options>
    <Option name="NCycles" modified="Yes">600</Option>
    <Option name="HiddenLayers" modified="Yes">6,7,11</Option>
    <Option name="NeuronType" modified="Yes">sigmoid</Option>
    <Option name="RandomSeed" modified="No">1</Option>
    <Option name="EstimatorType" modified="No">MSE</Option>
    <Option name="NeuronInputType" modified="No">sum</Option>
    <Option name="V" modified="No">False</Option>
    <Option name="VerbosityLevel" modified="No">Default</Option>
    <Option name="VarTransform" modified="Yes">N</Option>
    <Option name="H" modified="No">False</Option>
    <Option name="CreateMVAPdfs" modified="No">False</Option>
    <Option name="IgnoreNegWeightsInTraining" modified="No">False</Option>
    <Option name="TrainingMethod" modified="No">BP</Option>
    <Option name="LearningRate" modified="No">2.000000e-02</Option>
    <Option name="DecayRate" modified="No">1.000000e-02</Option>
    <Option name="TestRate" modified="Yes">5</Option>
    <Option name="EpochMonitoring" modified="No">False</Option>
    <Option name="Sampling" modified="No">1.000000e+00</Option>
    <Option name="SamplingEpoch" modified="No">1.000000e+00</Option>
    <Option name="SamplingImportance" modified="No">1.000000e+00</Option>
    <Option name="SamplingTraining" modified="No">True</Option>
    <Option name="SamplingTesting" modified="No">False</Option>
    <Option name="ResetStep" modified="No">50</Option>
    <Option name="Tau" modified="No">3.000000e+00</Option>
    <Option name="BPMode" modified="No">sequential</Option>
    <Option name="BatchSize" modified="No">-1</Option>
    <Option name="ConvergenceImprove" modified="No">1.000000e-30</Option>
    <Option name="ConvergenceTests" modified="No">-1</Option>
    <Option name="UseRegulator" modified="Yes">False</Option>
    <Option name="UpdateLimit" modified="No">10000</Option>
    <Option name="CalculateErrors" modified="No">False</Option>
    <Option name="WeightRange" modified="No">1.000000e+00</Option>
  </Options>
  <Variables NVar="8">
    <Variable VarIndex="0" Expression="Jet.PT" Label="Jet.PT" Title="Jet.PT" Unit="" Internal="Jet.PT" Type="F" Min="4.73000002e+00" Max="2.54340991e+03"/>
    <Variable VarIndex="1" Expression="Jet.Eta" Label="Jet.Eta" Title="Jet.Eta" Unit="" Internal="Jet.Eta" Type="F" Min="-3.99300003e+00" Max="3.99099994e+00"/>
    <Variable VarIndex="2" Expression="Jet.Phi" Label="Jet.Phi" Title="Jet.Phi" Unit="" Internal="Jet.Phi" Type="F" Min="0.00000000e+00" Max="6.28299999e+00"/>
    <Variable VarIndex="3" Expression="Jet.Mass" Label="Jet.Mass" Title="Jet.Mass" Unit="" Internal="Jet.Mass" Type="F" Min="0.00000000e+00" Max="2.58730011e+02"/>
    <Variable VarIndex="4" Expression="Jet.Ntrk" Label="Jet.Ntrk" Title="Jet.Ntrk" Unit="" Internal="Jet.Ntrk" Type="F" Min="0.00000000e+00" Max="6.10000000e+01"/>
    <Variable VarIndex="5" Expression="Jet.EhadOverEem" Label="Jet.EhadOverEem" Title="Jet.EhadOverEem" Unit="" Internal="Jet.EhadOverEem" Type="F" Min="0.00000000e+00" Max="9.99000000e+02"/>
    <Variable VarIndex="6" Expression="MissingET.Phi" Label="MissingET.Phi" Title="MissingET.Phi" Unit="" Internal="MissingET.Phi" Type="F" Min="0.00000000e+00" Max="6.28299999e+00"/>
    <Variable VarIndex="7" Expression="MissingET.MET" Label="MissingET.MET" Title="MissingET.MET" Unit="" Internal="MissingET.MET" Type="F" Min="1.00010002e+02" Max="1.58547998e+03"/>
  </Variables>
  <Spectators NSpec="0"/>
  <Classes NClass="2">
    <Class Name="Signal" Index="0"/>
    <Class Name="Background" Index="1"/>
  </Classes>
  <Transformations NTransformations="1">
    <Transform Name="Normalize">
      <Selection>
        <Input NInputs="8">
          <Input Type="Variable" Label="Jet.PT" Expression="Jet.PT"/>
          <Input Type="Variable" Label="Jet.Eta" Expression="Jet.Eta"/>
          <Input Type="Variable" Label="Jet.Phi" Expression="Jet.Phi"/>
          <Input Type="Variable" Label="Jet.Mass" Expression="Jet.Mass"/>
          <Input Type="Variable" Label="Jet.Ntrk" Expression="Jet.Ntrk"/>
          <Input Type="Variable" Label="Jet.EhadOverEem" Expression="Jet.EhadOverEem"/>
          <Input Type="Variable" Label="MissingET.Phi" Expression="MissingET.Phi"/>
          <Input Type="Variable" Label="MissingET.MET" Expression="MissingET.MET"/>
        </Input>
        <Output NOutputs="8">
          <Output Type="Variable" Label="Jet.PT" Expression="Jet.PT"/>
          <Output Type="Variable" Label="Jet.Eta" Expression="Jet.Eta"/>
          <Output Type="Variable" Label="Jet.Phi" Expression="Jet.Phi"/>
          <Output Type="Variable" Label="Jet.Mass" Expression="Jet.Mass"/>
          <Output Type="Variable" Label="Jet.Ntrk" Expression="Jet.Ntrk"/>
          <Output Type="Variable" Label="Jet.EhadOverEem" Expression="Jet.EhadOverEem"/>
          <Output Type="Variable" Label="MissingET.Phi" Expression="MissingET.Phi"/>
          <Output Type="Variable" Label="MissingET.MET" Expression="MissingET.MET"/>
        </Output>
      </Selection>
      <Class ClassIndex="0">
        <Ranges>
          <Range Index="0" Min="5.0000000000000000e+00" Max="2.5434099121093750e+03"/>
          <Range Index="1" Min="-3.9909999370574951e+00" Max="3.9909999370574951e+00"/>
          <Range Index="2" Min="0.0000000000000000e+00" Max="6.2829999923706055e+00"/>
          <Range Index="3" Min="0.0000000000000000e+00" Max="2.5873001098632812e+02"/>
          <Range Index="4" Min="0.0000000000000000e+00" Max="6.1000000000000000e+01"/>
          <Range Index="5" Min="0.0000000000000000e+00" Max="9.9900000000000000e+02"/>
          <Range Index="6" Min="0.0000000000000000e+00" Max="6.2829999923706055e+00"/>
          <Range Index="7" Min="1.0001999664306641e+02" Max="1.5854799804687500e+03"/>
        </Ranges>
      </Class>
      <Class ClassIndex="1">
        <Ranges>
          <Range Index="0" Min="4.7300000190734863e+00" Max="8.1752001953125000e+02"/>
          <Range Index="1" Min="-3.9930000305175781e+00" Max="3.9900000095367432e+00"/>
          <Range Index="2" Min="0.0000000000000000e+00" Max="6.2829999923706055e+00"/>
          <Range Index="3" Min="0.0000000000000000e+00" Max="1.5936999511718750e+02"/>
          <Range Index="4" Min="0.0000000000000000e+00" Max="5.9000000000000000e+01"/>
          <Range Index="5" Min="0.0000000000000000e+00" Max="9.9900000000000000e+02"/>
          <Range Index="6" Min="1.0000000474974513e-03" Max="6.2820000648498535e+00"/>
          <Range Index="7" Min="1.0001000213623047e+02" Max="6.6265002441406250e+02"/>
        </Ranges>
      </Class>
      <Class ClassIndex="2">
        <Ranges>
          <Range Index="0" Min="4.7300000190734863e+00" Max="2.5434099121093750e+03"/>
          <Range Index="1" Min="-3.9930000305175781e+00" Max="3.9909999370574951e+00"/>
          <Range Index="2" Min="0.0000000000000000e+00" Max="6.2829999923706055e+00"/>
          <Range Index="3" Min="0.0000000000000000e+00" Max="2.5873001098632812e+02"/>
          <Range Index="4" Min="0.0000000000000000e+00" Max="6.1000000000000000e+01"/>
          <Range Index="5" Min="0.0000000000000000e+00" Max="9.9900000000000000e+02"/>
          <Range Index="6" Min="0.0000000000000000e+00" Max="6.2829999923706055e+00"/>
          <Range Index="7" Min="1.0001000213623047e+02" Max="1.5854799804687500e+03"/>
        </Ranges>
      </Class>
    </Transform>
  </Transformations>
  <MVAPdfs/>
  <Weights>
    <Layout NLayers="5">
      <Layer Index="0" NNeurons="9">
        <Neuron NSynapses="6">
          3.1889002157736819e+00 2.0432533388703398e+00 1.6126062069816929e+00 1.5459784934271943e+00 -2.2440781686869662e+00 -2.5173314376286857e+00 
        </Neuron>
        <Neuron NSynapses="6">
          -5.0502245817747882e-01 6.2836151402823892e-01 -5.8182844287341301e-02 -6.1542219774446572e-01 -2.3478594668656378e+00 2.6066888014155860e-02 
        </Neuron>
        <Neuron NSynapses="6">
          1.4220506541491251e-01 8.9415447621763100e-01 -5.8208616134835001e-01 3.3281335063950479e-01 4.7187028897462585e-01 2.0584788065531145e+00 
        </Neuron>
        <Neuron NSynapses="6">
          -2.4417247176755449e-01 1.1393333152395093e+00 3.4358477351029532e-01 5.1014058590568831e-02 5.2493504466580321e-01 -3.8242068244679467e-01 
        </Neuron>
        <Neuron NSynapses="6">
          6.8572652474918128e-01 -1.9747937818461914e-01 2.0110183539689204e+00 -9.8743182514238492e-01 -1.7666523050574854e+00 4.9140044777163600e-01 
        </Neuron>
        <Neuron NSynapses="6">
          -8.9185619756777668e-01 2.4180225493248049e+00 -8.7737009176535885e-01 1.4822941832219683e+00 -3.6029677547395403e-02 -7.0318675125671881e-01 
        </Neuron>
        <Neuron NSynapses="6">
          6.4120824072745330e-02 1.0117178701460556e+00 -8.1899016731307883e-01 1.6384295433724102e-02 4.7504341336863848e-01 1.9461139253630619e+00 
        </Neuron>
        <Neuron NSynapses="6">
          7.4986076079392587e+00 9.7842764971896412e-01 -2.6364088154418726e+00 -4.1473926408422166e+00 1.6927393970211735e+00 5.0910865721486642e-01 
        </Neuron>
        <Neuron NSynapses="6">
          9.4835031872856597e+00 2.2635663658915908e+00 9.2991649440971846e-01 -7.2928007770001524e-01 -1.4329240805093566e+00 7.5333217447652789e-01 
        </Neuron>
      </Layer>
      <Layer Index="1" NNeurons="7">
        <Neuron NSynapses="7">
          -2.4539749711198109e+00 -9.2768725959904552e-01 -1.3212496156188036e+00 -3.8216111864158830e+00 3.6538050355197177e-01 -8.3804526970376425e-01 -8.0011542878728399e+00 
        </Neuron>
        <Neuron NSynapses="7">
          3.1968403823914854e-01 -3.1012860729699837e-01 7.0909866747843553e-01 1.5710706513621711e+00 -6.1114845125875039e-01 -1.9875468357587303e-01 -2.5549696914042745e+00 
        </Neuron>
        <Neuron NSynapses="7">
          1.1891548288281193e+00 -8.7149150169491485e-01 -7.0880858386459356e-01 -8.6554760342827042e-01 1.0471391860707266e+00 7.2237220643752087e-01 2.4785153033115122e+00 
        </Neuron>
        <Neuron NSynapses="7">
          -3.2328779044317946e-01 -1.9663086332643342e+00 -1.8764425817297068e+00 8.5834449863751516e-01 8.0987815651767425e-01 2.7267038819389504e+00 1.6993142381534243e+00 
        </Neuron>
        <Neuron NSynapses="7">
          1.9385603909609026e+00 -8.8145023510320453e-01 -9.5643637705194584e-01 1.9095184260904327e-01 1.6469732475889678e+00 -1.4091877244234872e+00 1.1097237236002375e+00 
        </Neuron>
        <Neuron NSynapses="7">
          -6.4160038975603406e-01 -2.7884660824869689e-01 -1.3547233699638483e-01 1.3633709440561474e+00 -1.7129288461737631e+00 -1.3990771142303564e+00 2.7777935584660374e+00 
        </Neuron>
        <Neuron NSynapses="7">
          -1.2622878835754542e-01 -1.5959464034527635e+00 -1.4875569074749355e+00 -4.2856576502064270e-01 -2.4171103016537105e+00 -2.3099285966312868e+00 -9.1428764633313542e-01 
        </Neuron>
      </Layer>
      <Layer Index="2" NNeurons="8">
        <Neuron NSynapses="11">
          1.4142506991467718e+00 -2.0623733577519179e+00 1.0997332814102851e+00 -9.8680061595994983e-01 -1.3755022890089155e+00 4.0300846093226300e-01 -7.6029705231150005e-02 -2.5371651494761385e+00 -6.7555296491772401e-02 -9.6421760849517216e-02 3.7558074120484092e-01 
        </Neuron>
        <Neuron NSynapses="11">
          -1.3935123689188595e+00 1.8156133836858013e+00 3.7131363355889596e-01 -9.5394761566979558e-01 7.8054969120723461e-01 -1.1226392203239577e+00 -1.5399800047642274e+00 1.0391816216487773e-01 -4.0486923464546898e-01 1.7890292126740071e+00 7.9290850748533115e-01 
        </Neuron>
        <Neuron NSynapses="11">
          -1.4061439770071106e-02 -3.6153292503827184e-01 1.6135154083727987e-01 -1.8012555093376814e+00 1.0439415367299258e+00 1.1112920206369052e-01 -1.7865095257411521e+00 6.2398595815556368e-01 -1.4930306511602880e+00 4.8218887768326266e-02 1.1789120851837280e+00 
        </Neuron>
        <Neuron NSynapses="11">
          1.6071454884963516e+00 -2.5549442410907890e+00 9.2658160510582899e-02 1.5079903555471217e+00 9.9484971991940241e-01 1.7032312304653355e-01 -1.6038678860334770e+00 -8.1682854245849179e-01 -1.8509518067154538e+00 1.0548796904482272e+00 1.2440576769492984e+00 
        </Neuron>
        <Neuron NSynapses="11">
          -6.9838094246765081e-01 -4.4623572324793886e-01 -1.5052475753852260e-01 -1.3711705131274179e+00 3.1528551253566250e-01 1.4917415241787384e+00 -4.5030698244815243e-01 -7.5344377592254441e-01 1.6934654519536205e-01 7.2263000716970294e-01 4.6975369125981464e-01 
        </Neuron>
        <Neuron NSynapses="11">
          7.1901317985971591e-01 -1.4913495752934660e+00 1.1887613371481045e+00 7.4961484929276134e-01 -5.6836116702527861e-02 -3.6286656952159918e-01 1.6494142743649731e+00 -7.8581772416691853e-01 -8.6424597856703955e-01 5.0917309373820241e-01 -1.0512334893395430e+00 
        </Neuron>
        <Neuron NSynapses="11">
          -1.1848878616756782e+00 2.5850618069137160e-01 4.0431820177549993e-01 -4.5719961544662330e-01 8.4344296900857485e-01 3.3212965172186300e+00 -3.2008839457287759e+00 -3.1903300811278179e-01 -3.7463935429993267e-01 -9.3686105152883156e-02 -1.9319811703856891e+00 
        </Neuron>
        <Neuron NSynapses="11">
          -2.4273312113983070e+00 -4.3075039954031247e-01 -7.6906082837088707e-01 -2.0816693566566618e+00 -1.9895902097210703e+00 -2.1350643932120383e+00 1.1320901195720932e+00 -2.1174340505793743e-01 -1.4246520110460883e+00 -2.0842167763560138e+00 -1.5353033065912371e+00 
        </Neuron>
      </Layer>
      <Layer Index="3" NNeurons="12">
        <Neuron NSynapses="1">
          7.2282562143523110e-01 
        </Neuron>
        <Neuron NSynapses="1">
          9.6918648569463819e-02 
        </Neuron>
        <Neuron NSynapses="1">
          7.0634744731412169e-01 
        </Neuron>
        <Neuron NSynapses="1">
          2.6195433169084842e-01 
        </Neuron>
        <Neuron NSynapses="1">
          -1.8251219841155167e-01 
        </Neuron>
        <Neuron NSynapses="1">
          -7.3930643137842567e-01 
        </Neuron>
        <Neuron NSynapses="1">
          1.0610935990791204e+00 
        </Neuron>
        <Neuron NSynapses="1">
          -2.5373158568616305e-01 
        </Neuron>
        <Neuron NSynapses="1">
          -8.7429006795046149e-01 
        </Neuron>
        <Neuron NSynapses="1">
          -1.1003244340616659e-01 
        </Neuron>
        <Neuron NSynapses="1">
          5.5311612848728953e-01 
        </Neuron>
        <Neuron NSynapses="1">
          1.0864369714540781e-01 
        </Neuron>
      </Layer>
      <Layer Index="4" NNeurons="1">
        <Neuron NSynapses="0"/>
      </Layer>
    </Layout>
  </Weights>
</MethodSetup>
