<?xml version="1.0"?>
<MethodSetup Method="MLP::Distro15Even">
  <GeneralInfo>
    <Info name="TMVA Release" value="4.2.0 [262656]"/>
    <Info name="ROOT Release" value="5.34/18 [336402]"/>
    <Info name="Creator" value="zxb0111"/>
    <Info name="Date" value="Thu Dec  4 11:52:27 2014"/>
    <Info name="Host" value="Linux localhost.localdomain 2.6.32-431.17.1.el6.x86_64 #1 SMP Wed May 7 14:14:17 CDT 2014 x86_64 x86_64 x86_64 GNU/Linux"/>
    <Info name="Dir" value="/home/zxb0111/seminar"/>
    <Info name="Training events" value="34086"/>
    <Info name="TrainingTime" value="1.92479403e+02"/>
    <Info name="AnalysisType" value="Classification"/>
  </GeneralInfo>
  <Options>
    <Option name="NCycles" modified="Yes">600</Option>
    <Option name="HiddenLayers" modified="Yes">5,5,5</Option>
    <Option name="NeuronType" modified="Yes">sigmoid</Option>
    <Option name="RandomSeed" modified="No">1</Option>
    <Option name="EstimatorType" modified="No">MSE</Option>
    <Option name="NeuronInputType" modified="No">sum</Option>
    <Option name="V" modified="No">False</Option>
    <Option name="VerbosityLevel" modified="No">Default</Option>
    <Option name="VarTransform" modified="Yes">N</Option>
    <Option name="H" modified="No">False</Option>
    <Option name="CreateMVAPdfs" modified="No">False</Option>
    <Option name="IgnoreNegWeightsInTraining" modified="No">False</Option>
    <Option name="TrainingMethod" modified="No">BP</Option>
    <Option name="LearningRate" modified="No">2.000000e-02</Option>
    <Option name="DecayRate" modified="No">1.000000e-02</Option>
    <Option name="TestRate" modified="Yes">5</Option>
    <Option name="EpochMonitoring" modified="No">False</Option>
    <Option name="Sampling" modified="No">1.000000e+00</Option>
    <Option name="SamplingEpoch" modified="No">1.000000e+00</Option>
    <Option name="SamplingImportance" modified="No">1.000000e+00</Option>
    <Option name="SamplingTraining" modified="No">True</Option>
    <Option name="SamplingTesting" modified="No">False</Option>
    <Option name="ResetStep" modified="No">50</Option>
    <Option name="Tau" modified="No">3.000000e+00</Option>
    <Option name="BPMode" modified="No">sequential</Option>
    <Option name="BatchSize" modified="No">-1</Option>
    <Option name="ConvergenceImprove" modified="No">1.000000e-30</Option>
    <Option name="ConvergenceTests" modified="No">-1</Option>
    <Option name="UseRegulator" modified="Yes">False</Option>
    <Option name="UpdateLimit" modified="No">10000</Option>
    <Option name="CalculateErrors" modified="No">False</Option>
    <Option name="WeightRange" modified="No">1.000000e+00</Option>
  </Options>
  <Variables NVar="8">
    <Variable VarIndex="0" Expression="Jet.PT" Label="Jet.PT" Title="Jet.PT" Unit="" Internal="Jet.PT" Type="F" Min="4.73000002e+00" Max="2.54340991e+03"/>
    <Variable VarIndex="1" Expression="Jet.Eta" Label="Jet.Eta" Title="Jet.Eta" Unit="" Internal="Jet.Eta" Type="F" Min="-3.99300003e+00" Max="3.99099994e+00"/>
    <Variable VarIndex="2" Expression="Jet.Phi" Label="Jet.Phi" Title="Jet.Phi" Unit="" Internal="Jet.Phi" Type="F" Min="0.00000000e+00" Max="6.28299999e+00"/>
    <Variable VarIndex="3" Expression="Jet.Mass" Label="Jet.Mass" Title="Jet.Mass" Unit="" Internal="Jet.Mass" Type="F" Min="0.00000000e+00" Max="2.58730011e+02"/>
    <Variable VarIndex="4" Expression="Jet.Ntrk" Label="Jet.Ntrk" Title="Jet.Ntrk" Unit="" Internal="Jet.Ntrk" Type="F" Min="0.00000000e+00" Max="6.10000000e+01"/>
    <Variable VarIndex="5" Expression="Jet.EhadOverEem" Label="Jet.EhadOverEem" Title="Jet.EhadOverEem" Unit="" Internal="Jet.EhadOverEem" Type="F" Min="0.00000000e+00" Max="9.99000000e+02"/>
    <Variable VarIndex="6" Expression="MissingET.Phi" Label="MissingET.Phi" Title="MissingET.Phi" Unit="" Internal="MissingET.Phi" Type="F" Min="0.00000000e+00" Max="6.28299999e+00"/>
    <Variable VarIndex="7" Expression="MissingET.MET" Label="MissingET.MET" Title="MissingET.MET" Unit="" Internal="MissingET.MET" Type="F" Min="1.00010002e+02" Max="1.58547998e+03"/>
  </Variables>
  <Spectators NSpec="0"/>
  <Classes NClass="2">
    <Class Name="Signal" Index="0"/>
    <Class Name="Background" Index="1"/>
  </Classes>
  <Transformations NTransformations="1">
    <Transform Name="Normalize">
      <Selection>
        <Input NInputs="8">
          <Input Type="Variable" Label="Jet.PT" Expression="Jet.PT"/>
          <Input Type="Variable" Label="Jet.Eta" Expression="Jet.Eta"/>
          <Input Type="Variable" Label="Jet.Phi" Expression="Jet.Phi"/>
          <Input Type="Variable" Label="Jet.Mass" Expression="Jet.Mass"/>
          <Input Type="Variable" Label="Jet.Ntrk" Expression="Jet.Ntrk"/>
          <Input Type="Variable" Label="Jet.EhadOverEem" Expression="Jet.EhadOverEem"/>
          <Input Type="Variable" Label="MissingET.Phi" Expression="MissingET.Phi"/>
          <Input Type="Variable" Label="MissingET.MET" Expression="MissingET.MET"/>
        </Input>
        <Output NOutputs="8">
          <Output Type="Variable" Label="Jet.PT" Expression="Jet.PT"/>
          <Output Type="Variable" Label="Jet.Eta" Expression="Jet.Eta"/>
          <Output Type="Variable" Label="Jet.Phi" Expression="Jet.Phi"/>
          <Output Type="Variable" Label="Jet.Mass" Expression="Jet.Mass"/>
          <Output Type="Variable" Label="Jet.Ntrk" Expression="Jet.Ntrk"/>
          <Output Type="Variable" Label="Jet.EhadOverEem" Expression="Jet.EhadOverEem"/>
          <Output Type="Variable" Label="MissingET.Phi" Expression="MissingET.Phi"/>
          <Output Type="Variable" Label="MissingET.MET" Expression="MissingET.MET"/>
        </Output>
      </Selection>
      <Class ClassIndex="0">
        <Ranges>
          <Range Index="0" Min="5.0000000000000000e+00" Max="2.5434099121093750e+03"/>
          <Range Index="1" Min="-3.9909999370574951e+00" Max="3.9909999370574951e+00"/>
          <Range Index="2" Min="0.0000000000000000e+00" Max="6.2829999923706055e+00"/>
          <Range Index="3" Min="0.0000000000000000e+00" Max="2.5873001098632812e+02"/>
          <Range Index="4" Min="0.0000000000000000e+00" Max="6.1000000000000000e+01"/>
          <Range Index="5" Min="0.0000000000000000e+00" Max="9.9900000000000000e+02"/>
          <Range Index="6" Min="0.0000000000000000e+00" Max="6.2829999923706055e+00"/>
          <Range Index="7" Min="1.0001999664306641e+02" Max="1.5854799804687500e+03"/>
        </Ranges>
      </Class>
      <Class ClassIndex="1">
        <Ranges>
          <Range Index="0" Min="4.7300000190734863e+00" Max="8.1752001953125000e+02"/>
          <Range Index="1" Min="-3.9930000305175781e+00" Max="3.9900000095367432e+00"/>
          <Range Index="2" Min="0.0000000000000000e+00" Max="6.2829999923706055e+00"/>
          <Range Index="3" Min="0.0000000000000000e+00" Max="1.5936999511718750e+02"/>
          <Range Index="4" Min="0.0000000000000000e+00" Max="5.9000000000000000e+01"/>
          <Range Index="5" Min="0.0000000000000000e+00" Max="9.9900000000000000e+02"/>
          <Range Index="6" Min="1.0000000474974513e-03" Max="6.2820000648498535e+00"/>
          <Range Index="7" Min="1.0001000213623047e+02" Max="6.6265002441406250e+02"/>
        </Ranges>
      </Class>
      <Class ClassIndex="2">
        <Ranges>
          <Range Index="0" Min="4.7300000190734863e+00" Max="2.5434099121093750e+03"/>
          <Range Index="1" Min="-3.9930000305175781e+00" Max="3.9909999370574951e+00"/>
          <Range Index="2" Min="0.0000000000000000e+00" Max="6.2829999923706055e+00"/>
          <Range Index="3" Min="0.0000000000000000e+00" Max="2.5873001098632812e+02"/>
          <Range Index="4" Min="0.0000000000000000e+00" Max="6.1000000000000000e+01"/>
          <Range Index="5" Min="0.0000000000000000e+00" Max="9.9900000000000000e+02"/>
          <Range Index="6" Min="0.0000000000000000e+00" Max="6.2829999923706055e+00"/>
          <Range Index="7" Min="1.0001000213623047e+02" Max="1.5854799804687500e+03"/>
        </Ranges>
      </Class>
    </Transform>
  </Transformations>
  <MVAPdfs/>
  <Weights>
    <Layout NLayers="5">
      <Layer Index="0" NNeurons="9">
        <Neuron NSynapses="5">
          1.7826812960135588e-01 1.4274665425475115e+00 4.9653631132820477e+00 3.8565053052999390e+00 -3.2775466335362693e+00 
        </Neuron>
        <Neuron NSynapses="5">
          4.9751770899296131e-02 1.0081470465671146e-02 -9.7497535893445557e-03 -8.7067790807407296e-03 3.7162300325640274e-02 
        </Neuron>
        <Neuron NSynapses="5">
          -3.9811106920063102e+00 -4.4741929662686859e+00 1.2184857484766649e-01 -2.3734852021867368e+00 -2.4744742851233541e+00 
        </Neuron>
        <Neuron NSynapses="5">
          1.6752252074349683e+00 -8.2890470685186357e-01 5.7243497263566623e-01 8.4870283519995193e-01 1.6914150103149964e-01 
        </Neuron>
        <Neuron NSynapses="5">
          3.9800451389366753e-01 -4.4641994510763450e-01 1.0039348135731145e+00 4.1868077228426831e-01 -4.2937529597995489e-01 
        </Neuron>
        <Neuron NSynapses="5">
          5.7589942964171770e-01 8.3928031443671947e-01 -2.8000837233204710e+00 -2.6318180924663443e+00 7.0832871250301011e-01 
        </Neuron>
        <Neuron NSynapses="5">
          4.0789186912860123e+00 4.3548108060134352e+00 -1.4031284203925268e-01 2.2192761553500904e+00 2.6560566974660094e+00 
        </Neuron>
        <Neuron NSynapses="5">
          2.4822049140001073e-01 -1.9557585115045308e+00 5.1734635285922446e+00 -3.5429261962764325e+00 5.3242890397087761e+00 
        </Neuron>
        <Neuron NSynapses="5">
          2.4766963531592223e-01 1.8628658581559094e+00 6.8488187267322731e+00 1.5802299232093893e+00 -1.1047564999083201e+00 
        </Neuron>
      </Layer>
      <Layer Index="1" NNeurons="6">
        <Neuron NSynapses="5">
          -2.6412700845459471e+00 2.4062840871416444e+00 -2.7119803648468044e+00 1.4353907924001827e+00 1.0151417362637316e+00 
        </Neuron>
        <Neuron NSynapses="5">
          2.2809775340200029e+00 3.7722202830514764e+00 -3.7465052225841959e+00 1.2292390995641258e+00 -2.3126095659474672e+00 
        </Neuron>
        <Neuron NSynapses="5">
          -8.8006755528650116e-01 -5.0412335874855856e+00 -5.6755783683696635e+00 1.1383028740463625e+00 8.9833894818745430e-01 
        </Neuron>
        <Neuron NSynapses="5">
          -1.8201001041259115e+00 -3.6412683158642423e-01 3.3187401566728836e+00 9.7543164590831372e-02 1.5572728587543463e+00 
        </Neuron>
        <Neuron NSynapses="5">
          7.6719026258906331e-01 -3.2401274532288546e+00 -3.3455883780392757e+00 8.1849705665016803e-01 2.4881402395577193e-01 
        </Neuron>
        <Neuron NSynapses="5">
          1.0185437708025253e+00 -2.3543653269598912e+00 1.4014530706679174e+00 9.4193480275256092e-01 1.6238446586113131e+00 
        </Neuron>
      </Layer>
      <Layer Index="2" NNeurons="6">
        <Neuron NSynapses="5">
          8.6512226217637482e-03 -3.2386882707358136e+00 -1.8170930321311256e+00 1.0492680652393338e+00 5.1693010573822817e-01 
        </Neuron>
        <Neuron NSynapses="5">
          2.2162550690979201e+00 5.9940111611045568e+00 1.0103883632940129e+00 -7.0673887159911664e-01 -6.6636863070377594e-01 
        </Neuron>
        <Neuron NSynapses="5">
          3.5801638101300542e-01 6.0807171260956592e+00 -1.9079478158351786e+00 -1.6569839694764803e+00 -1.7289187500283221e+00 
        </Neuron>
        <Neuron NSynapses="5">
          4.8815020173491652e-01 -3.0627246544048475e-01 5.9700595656267408e-01 -1.7016502295013956e+00 -7.0142224143874587e-01 
        </Neuron>
        <Neuron NSynapses="5">
          2.2739926350881627e+00 -4.0812724275204404e-01 -2.6026792173126392e+00 -1.7278959135620016e+00 1.1129187978291226e-01 
        </Neuron>
        <Neuron NSynapses="5">
          -1.0920129704809449e+00 -1.5206571984729456e+00 -3.2366551796979415e-01 1.5278329354201703e+00 -1.0705651699991590e+00 
        </Neuron>
      </Layer>
      <Layer Index="3" NNeurons="6">
        <Neuron NSynapses="1">
          1.3454155667748902e+00 
        </Neuron>
        <Neuron NSynapses="1">
          -1.4459599937695942e+00 
        </Neuron>
        <Neuron NSynapses="1">
          -8.1232172262134639e-01 
        </Neuron>
        <Neuron NSynapses="1">
          -3.5306965759578568e-01 
        </Neuron>
        <Neuron NSynapses="1">
          -3.0842125208600613e-01 
        </Neuron>
        <Neuron NSynapses="1">
          1.2061171204045794e-01 
        </Neuron>
      </Layer>
      <Layer Index="4" NNeurons="1">
        <Neuron NSynapses="0"/>
      </Layer>
    </Layout>
  </Weights>
</MethodSetup>
