<?xml version="1.0"?>
<MethodSetup Method="MLP::MLP N+5, N+5">
  <GeneralInfo>
    <Info name="TMVA Release" value="4.2.0 [262656]"/>
    <Info name="ROOT Release" value="5.34/18 [336402]"/>
    <Info name="Creator" value="zxb0111"/>
    <Info name="Date" value="Mon Dec  1 15:42:07 2014"/>
    <Info name="Host" value="Linux localhost.localdomain 2.6.32-431.17.1.el6.x86_64 #1 SMP Wed May 7 14:14:17 CDT 2014 x86_64 x86_64 x86_64 GNU/Linux"/>
    <Info name="Dir" value="/home/zxb0111/seminar"/>
    <Info name="Training events" value="35264"/>
    <Info name="TrainingTime" value="1.93982916e+02"/>
    <Info name="AnalysisType" value="Classification"/>
  </GeneralInfo>
  <Options>
    <Option name="NCycles" modified="Yes">600</Option>
    <Option name="HiddenLayers" modified="Yes">N+10</Option>
    <Option name="NeuronType" modified="Yes">sigmoid</Option>
    <Option name="RandomSeed" modified="No">1</Option>
    <Option name="EstimatorType" modified="No">MSE</Option>
    <Option name="NeuronInputType" modified="No">sum</Option>
    <Option name="V" modified="Yes">False</Option>
    <Option name="VerbosityLevel" modified="No">Default</Option>
    <Option name="VarTransform" modified="Yes">N</Option>
    <Option name="H" modified="Yes">True</Option>
    <Option name="CreateMVAPdfs" modified="No">False</Option>
    <Option name="IgnoreNegWeightsInTraining" modified="No">False</Option>
    <Option name="TrainingMethod" modified="No">BP</Option>
    <Option name="LearningRate" modified="No">2.000000e-02</Option>
    <Option name="DecayRate" modified="No">1.000000e-02</Option>
    <Option name="TestRate" modified="Yes">5</Option>
    <Option name="EpochMonitoring" modified="No">False</Option>
    <Option name="Sampling" modified="No">1.000000e+00</Option>
    <Option name="SamplingEpoch" modified="No">1.000000e+00</Option>
    <Option name="SamplingImportance" modified="No">1.000000e+00</Option>
    <Option name="SamplingTraining" modified="No">True</Option>
    <Option name="SamplingTesting" modified="No">False</Option>
    <Option name="ResetStep" modified="No">50</Option>
    <Option name="Tau" modified="No">3.000000e+00</Option>
    <Option name="BPMode" modified="No">sequential</Option>
    <Option name="BatchSize" modified="No">-1</Option>
    <Option name="ConvergenceImprove" modified="No">1.000000e-30</Option>
    <Option name="ConvergenceTests" modified="No">-1</Option>
    <Option name="UseRegulator" modified="Yes">False</Option>
    <Option name="UpdateLimit" modified="No">10000</Option>
    <Option name="CalculateErrors" modified="No">False</Option>
    <Option name="WeightRange" modified="No">1.000000e+00</Option>
  </Options>
  <Variables NVar="6">
    <Variable VarIndex="0" Expression="Jet.Eta" Label="Jet.Eta" Title="Jet.Eta" Unit="" Internal="Jet.Eta" Type="F" Min="-3.99399996e+00" Max="3.99799991e+00"/>
    <Variable VarIndex="1" Expression="Jet.Phi" Label="Jet.Phi" Title="Jet.Phi" Unit="" Internal="Jet.Phi" Type="F" Min="0.00000000e+00" Max="6.28299999e+00"/>
    <Variable VarIndex="2" Expression="Jet.Mass" Label="Jet.Mass" Title="Jet.Mass" Unit="" Internal="Jet.Mass" Type="F" Min="0.00000000e+00" Max="2.51460007e+02"/>
    <Variable VarIndex="3" Expression="Jet.PT" Label="Jet.PT" Title="Jet.PT" Unit="" Internal="Jet.PT" Type="F" Min="4.73000002e+00" Max="2.14732007e+03"/>
    <Variable VarIndex="4" Expression="MissingET.Phi" Label="MissingET.Phi" Title="MissingET.Phi" Unit="" Internal="MissingET.Phi" Type="F" Min="0.00000000e+00" Max="6.28299999e+00"/>
    <Variable VarIndex="5" Expression="MissingET.MET" Label="MissingET.MET" Title="MissingET.MET" Unit="" Internal="MissingET.MET" Type="F" Min="3.57999992e+00" Max="1.58547998e+03"/>
  </Variables>
  <Spectators NSpec="0"/>
  <Classes NClass="2">
    <Class Name="Signal" Index="0"/>
    <Class Name="Background" Index="1"/>
  </Classes>
  <Transformations NTransformations="1">
    <Transform Name="Normalize">
      <Selection>
        <Input NInputs="6">
          <Input Type="Variable" Label="Jet.Eta" Expression="Jet.Eta"/>
          <Input Type="Variable" Label="Jet.Phi" Expression="Jet.Phi"/>
          <Input Type="Variable" Label="Jet.Mass" Expression="Jet.Mass"/>
          <Input Type="Variable" Label="Jet.PT" Expression="Jet.PT"/>
          <Input Type="Variable" Label="MissingET.Phi" Expression="MissingET.Phi"/>
          <Input Type="Variable" Label="MissingET.MET" Expression="MissingET.MET"/>
        </Input>
        <Output NOutputs="6">
          <Output Type="Variable" Label="Jet.Eta" Expression="Jet.Eta"/>
          <Output Type="Variable" Label="Jet.Phi" Expression="Jet.Phi"/>
          <Output Type="Variable" Label="Jet.Mass" Expression="Jet.Mass"/>
          <Output Type="Variable" Label="Jet.PT" Expression="Jet.PT"/>
          <Output Type="Variable" Label="MissingET.Phi" Expression="MissingET.Phi"/>
          <Output Type="Variable" Label="MissingET.MET" Expression="MissingET.MET"/>
        </Output>
      </Selection>
      <Class ClassIndex="0">
        <Ranges>
          <Range Index="0" Min="-3.9809999465942383e+00" Max="3.9979999065399170e+00"/>
          <Range Index="1" Min="0.0000000000000000e+00" Max="6.2829999923706055e+00"/>
          <Range Index="2" Min="0.0000000000000000e+00" Max="2.5146000671386719e+02"/>
          <Range Index="3" Min="5.0000000000000000e+00" Max="2.1473200683593750e+03"/>
          <Range Index="4" Min="0.0000000000000000e+00" Max="6.2829999923706055e+00"/>
          <Range Index="5" Min="3.5799999237060547e+00" Max="1.5854799804687500e+03"/>
        </Ranges>
      </Class>
      <Class ClassIndex="1">
        <Ranges>
          <Range Index="0" Min="-3.9939999580383301e+00" Max="3.9969999790191650e+00"/>
          <Range Index="1" Min="0.0000000000000000e+00" Max="6.2829999923706055e+00"/>
          <Range Index="2" Min="0.0000000000000000e+00" Max="1.8416999816894531e+02"/>
          <Range Index="3" Min="4.7300000190734863e+00" Max="8.1752001953125000e+02"/>
          <Range Index="4" Min="1.0000000474974513e-03" Max="6.2820000648498535e+00"/>
          <Range Index="5" Min="1.0001000213623047e+02" Max="6.6265002441406250e+02"/>
        </Ranges>
      </Class>
      <Class ClassIndex="2">
        <Ranges>
          <Range Index="0" Min="-3.9939999580383301e+00" Max="3.9979999065399170e+00"/>
          <Range Index="1" Min="0.0000000000000000e+00" Max="6.2829999923706055e+00"/>
          <Range Index="2" Min="0.0000000000000000e+00" Max="2.5146000671386719e+02"/>
          <Range Index="3" Min="4.7300000190734863e+00" Max="2.1473200683593750e+03"/>
          <Range Index="4" Min="0.0000000000000000e+00" Max="6.2829999923706055e+00"/>
          <Range Index="5" Min="3.5799999237060547e+00" Max="1.5854799804687500e+03"/>
        </Ranges>
      </Class>
    </Transform>
  </Transformations>
  <MVAPdfs/>
  <Weights>
    <Layout NLayers="3">
      <Layer Index="0" NNeurons="7">
        <Neuron NSynapses="16">
          -1.2585213674292538e-02 3.1257106358844274e-02 6.4132537412887458e-01 -1.4113786705035664e-01 -1.8390646379287510e+00 -2.1225841175284793e-01 -7.9865258188439414e-01 1.7868796996013523e+00 3.6552899768198164e-03 6.1639907016884925e-02 -1.7170854985471091e+00 -1.2357747327217047e-02 -6.8017485093888430e-01 2.8495714463845509e-02 -2.4854880880872268e-01 1.9225567856073270e-01 
        </Neuron>
        <Neuron NSynapses="16">
          -3.1331399849083099e+00 3.7849187363775925e+00 1.0666428286088621e+00 2.7171282693059733e+00 -4.3124850525031977e-01 1.4149183182425812e-01 2.2248051342454847e-01 2.5168001407606022e-01 1.0551899421639042e-03 -2.7825411341450121e+00 1.5060067313291281e+00 -1.7224914591464614e-02 -1.7429162061476373e+00 2.7213820396909534e+00 3.6285687336922091e-02 5.5396142480806232e-01 
        </Neuron>
        <Neuron NSynapses="16">
          -1.7593485673800721e-01 7.5738297495045592e-01 5.3513996043850665e-01 4.1028189509019312e-02 -3.1166267677685722e-01 1.4460581986243699e+00 -2.6136163887721542e-01 2.2456068617715426e+00 1.1307541257005165e+00 1.7816905331706303e+00 1.7903749647801248e+00 1.2323723667164765e+00 3.3262759155933080e-01 4.0934714281692114e-01 1.3740896503905415e+00 1.1215386195375891e-01 
        </Neuron>
        <Neuron NSynapses="16">
          -5.4667222547031957e-01 2.2584323019632255e+00 8.9951742369589127e-01 3.0434330692189387e-01 -4.8757557459879880e-01 2.4002755563812577e+00 -4.9941008876402143e-01 4.0438011561877019e-01 2.1566459163680197e-02 1.2185774219276924e+00 1.6524040217779232e+00 1.6436728970606498e+00 -6.6138334019289324e-01 1.6898262858271345e+00 -2.5266092611233110e-02 8.9767778785491303e-01 
        </Neuron>
        <Neuron NSynapses="16">
          3.1696431664478735e+00 -3.5264057862264346e+00 -5.7644067622337103e-01 -2.8155383338669449e+00 1.0317253224323966e+00 -1.5699802667211615e-01 2.1724033289000300e-02 -1.4875781877648742e+00 -6.9126881533845747e-02 3.0039443270967325e+00 1.1362808153805335e+00 -3.3865572660619229e-02 -1.8486122585423179e-01 -2.6993848829637557e+00 1.2251778389456280e+00 8.3649129348089513e-01 
        </Neuron>
        <Neuron NSynapses="16">
          2.8903760852854590e+00 -1.1389556436180387e-01 6.5182182851883275e-01 -4.6421159339439694e-01 2.0977264527342182e-01 -4.5358131096841703e+00 1.9513746525955438e+00 -1.8894292917628487e-02 -1.7102723025330899e+01 -1.9680276910777068e+00 -7.4402252171647132e-01 -1.2007995340830552e+01 2.7991690385249250e+00 -1.7025703656195410e+00 -8.1334868745157329e-01 1.7385925285824506e+00 
        </Neuron>
        <Neuron NSynapses="16">
          -2.0816709563560547e+00 -2.3468162868535121e+00 -1.4810255294101129e+00 1.7581235656479852e+00 -2.9671363806035118e+00 -3.0949291104981982e+00 -4.7498324156132465e-01 -2.1846321803812388e-01 -1.2572961250467239e+01 1.0622589583021080e+00 -1.4574571904089200e+00 -8.2281891698042049e+00 -9.0674711803986507e-01 -2.0083953024751331e+00 -2.4314633586135379e+00 9.2493879352110087e-01 
        </Neuron>
      </Layer>
      <Layer Index="1" NNeurons="17">
        <Neuron NSynapses="1">
          1.2921440025263109e+00 
        </Neuron>
        <Neuron NSynapses="1">
          1.2161046585119455e+00 
        </Neuron>
        <Neuron NSynapses="1">
          -6.5861162336539991e-01 
        </Neuron>
        <Neuron NSynapses="1">
          1.9026161086568463e+00 
        </Neuron>
        <Neuron NSynapses="1">
          -7.9214495271238430e-02 
        </Neuron>
        <Neuron NSynapses="1">
          -2.6132381710705799e+00 
        </Neuron>
        <Neuron NSynapses="1">
          -2.6840386706583502e-01 
        </Neuron>
        <Neuron NSynapses="1">
          -1.0053984095960759e-01 
        </Neuron>
        <Neuron NSynapses="1">
          -3.2359715353122880e+00 
        </Neuron>
        <Neuron NSynapses="1">
          5.0740152215471201e-01 
        </Neuron>
        <Neuron NSynapses="1">
          -8.0580635479784835e-02 
        </Neuron>
        <Neuron NSynapses="1">
          4.8627604890950504e+00 
        </Neuron>
        <Neuron NSynapses="1">
          -1.5667976511969173e-01 
        </Neuron>
        <Neuron NSynapses="1">
          -1.0505009425669987e+00 
        </Neuron>
        <Neuron NSynapses="1">
          6.3936449202370005e-01 
        </Neuron>
        <Neuron NSynapses="1">
          -1.6327217162647550e-01 
        </Neuron>
        <Neuron NSynapses="1">
          -5.4930078605730348e-01 
        </Neuron>
      </Layer>
      <Layer Index="2" NNeurons="1">
        <Neuron NSynapses="0"/>
      </Layer>
    </Layout>
  </Weights>
</MethodSetup>
