<?xml version="1.0"?>
<MethodSetup Method="MLP::Distro15Decrease">
  <GeneralInfo>
    <Info name="TMVA Release" value="4.2.0 [262656]"/>
    <Info name="ROOT Release" value="5.34/18 [336402]"/>
    <Info name="Creator" value="zxb0111"/>
    <Info name="Date" value="Thu Dec  4 11:49:15 2014"/>
    <Info name="Host" value="Linux localhost.localdomain 2.6.32-431.17.1.el6.x86_64 #1 SMP Wed May 7 14:14:17 CDT 2014 x86_64 x86_64 x86_64 GNU/Linux"/>
    <Info name="Dir" value="/home/zxb0111/seminar"/>
    <Info name="Training events" value="34086"/>
    <Info name="TrainingTime" value="1.88603043e+02"/>
    <Info name="AnalysisType" value="Classification"/>
  </GeneralInfo>
  <Options>
    <Option name="NCycles" modified="Yes">600</Option>
    <Option name="HiddenLayers" modified="Yes">3,4,8</Option>
    <Option name="NeuronType" modified="Yes">sigmoid</Option>
    <Option name="RandomSeed" modified="No">1</Option>
    <Option name="EstimatorType" modified="No">MSE</Option>
    <Option name="NeuronInputType" modified="No">sum</Option>
    <Option name="V" modified="No">False</Option>
    <Option name="VerbosityLevel" modified="No">Default</Option>
    <Option name="VarTransform" modified="Yes">N</Option>
    <Option name="H" modified="No">False</Option>
    <Option name="CreateMVAPdfs" modified="No">False</Option>
    <Option name="IgnoreNegWeightsInTraining" modified="No">False</Option>
    <Option name="TrainingMethod" modified="No">BP</Option>
    <Option name="LearningRate" modified="No">2.000000e-02</Option>
    <Option name="DecayRate" modified="No">1.000000e-02</Option>
    <Option name="TestRate" modified="Yes">5</Option>
    <Option name="EpochMonitoring" modified="No">False</Option>
    <Option name="Sampling" modified="No">1.000000e+00</Option>
    <Option name="SamplingEpoch" modified="No">1.000000e+00</Option>
    <Option name="SamplingImportance" modified="No">1.000000e+00</Option>
    <Option name="SamplingTraining" modified="No">True</Option>
    <Option name="SamplingTesting" modified="No">False</Option>
    <Option name="ResetStep" modified="No">50</Option>
    <Option name="Tau" modified="No">3.000000e+00</Option>
    <Option name="BPMode" modified="No">sequential</Option>
    <Option name="BatchSize" modified="No">-1</Option>
    <Option name="ConvergenceImprove" modified="No">1.000000e-30</Option>
    <Option name="ConvergenceTests" modified="No">-1</Option>
    <Option name="UseRegulator" modified="Yes">False</Option>
    <Option name="UpdateLimit" modified="No">10000</Option>
    <Option name="CalculateErrors" modified="No">False</Option>
    <Option name="WeightRange" modified="No">1.000000e+00</Option>
  </Options>
  <Variables NVar="8">
    <Variable VarIndex="0" Expression="Jet.PT" Label="Jet.PT" Title="Jet.PT" Unit="" Internal="Jet.PT" Type="F" Min="4.73000002e+00" Max="2.54340991e+03"/>
    <Variable VarIndex="1" Expression="Jet.Eta" Label="Jet.Eta" Title="Jet.Eta" Unit="" Internal="Jet.Eta" Type="F" Min="-3.99300003e+00" Max="3.99099994e+00"/>
    <Variable VarIndex="2" Expression="Jet.Phi" Label="Jet.Phi" Title="Jet.Phi" Unit="" Internal="Jet.Phi" Type="F" Min="0.00000000e+00" Max="6.28299999e+00"/>
    <Variable VarIndex="3" Expression="Jet.Mass" Label="Jet.Mass" Title="Jet.Mass" Unit="" Internal="Jet.Mass" Type="F" Min="0.00000000e+00" Max="2.58730011e+02"/>
    <Variable VarIndex="4" Expression="Jet.Ntrk" Label="Jet.Ntrk" Title="Jet.Ntrk" Unit="" Internal="Jet.Ntrk" Type="F" Min="0.00000000e+00" Max="6.10000000e+01"/>
    <Variable VarIndex="5" Expression="Jet.EhadOverEem" Label="Jet.EhadOverEem" Title="Jet.EhadOverEem" Unit="" Internal="Jet.EhadOverEem" Type="F" Min="0.00000000e+00" Max="9.99000000e+02"/>
    <Variable VarIndex="6" Expression="MissingET.Phi" Label="MissingET.Phi" Title="MissingET.Phi" Unit="" Internal="MissingET.Phi" Type="F" Min="0.00000000e+00" Max="6.28299999e+00"/>
    <Variable VarIndex="7" Expression="MissingET.MET" Label="MissingET.MET" Title="MissingET.MET" Unit="" Internal="MissingET.MET" Type="F" Min="1.00010002e+02" Max="1.58547998e+03"/>
  </Variables>
  <Spectators NSpec="0"/>
  <Classes NClass="2">
    <Class Name="Signal" Index="0"/>
    <Class Name="Background" Index="1"/>
  </Classes>
  <Transformations NTransformations="1">
    <Transform Name="Normalize">
      <Selection>
        <Input NInputs="8">
          <Input Type="Variable" Label="Jet.PT" Expression="Jet.PT"/>
          <Input Type="Variable" Label="Jet.Eta" Expression="Jet.Eta"/>
          <Input Type="Variable" Label="Jet.Phi" Expression="Jet.Phi"/>
          <Input Type="Variable" Label="Jet.Mass" Expression="Jet.Mass"/>
          <Input Type="Variable" Label="Jet.Ntrk" Expression="Jet.Ntrk"/>
          <Input Type="Variable" Label="Jet.EhadOverEem" Expression="Jet.EhadOverEem"/>
          <Input Type="Variable" Label="MissingET.Phi" Expression="MissingET.Phi"/>
          <Input Type="Variable" Label="MissingET.MET" Expression="MissingET.MET"/>
        </Input>
        <Output NOutputs="8">
          <Output Type="Variable" Label="Jet.PT" Expression="Jet.PT"/>
          <Output Type="Variable" Label="Jet.Eta" Expression="Jet.Eta"/>
          <Output Type="Variable" Label="Jet.Phi" Expression="Jet.Phi"/>
          <Output Type="Variable" Label="Jet.Mass" Expression="Jet.Mass"/>
          <Output Type="Variable" Label="Jet.Ntrk" Expression="Jet.Ntrk"/>
          <Output Type="Variable" Label="Jet.EhadOverEem" Expression="Jet.EhadOverEem"/>
          <Output Type="Variable" Label="MissingET.Phi" Expression="MissingET.Phi"/>
          <Output Type="Variable" Label="MissingET.MET" Expression="MissingET.MET"/>
        </Output>
      </Selection>
      <Class ClassIndex="0">
        <Ranges>
          <Range Index="0" Min="5.0000000000000000e+00" Max="2.5434099121093750e+03"/>
          <Range Index="1" Min="-3.9909999370574951e+00" Max="3.9909999370574951e+00"/>
          <Range Index="2" Min="0.0000000000000000e+00" Max="6.2829999923706055e+00"/>
          <Range Index="3" Min="0.0000000000000000e+00" Max="2.5873001098632812e+02"/>
          <Range Index="4" Min="0.0000000000000000e+00" Max="6.1000000000000000e+01"/>
          <Range Index="5" Min="0.0000000000000000e+00" Max="9.9900000000000000e+02"/>
          <Range Index="6" Min="0.0000000000000000e+00" Max="6.2829999923706055e+00"/>
          <Range Index="7" Min="1.0001999664306641e+02" Max="1.5854799804687500e+03"/>
        </Ranges>
      </Class>
      <Class ClassIndex="1">
        <Ranges>
          <Range Index="0" Min="4.7300000190734863e+00" Max="8.1752001953125000e+02"/>
          <Range Index="1" Min="-3.9930000305175781e+00" Max="3.9900000095367432e+00"/>
          <Range Index="2" Min="0.0000000000000000e+00" Max="6.2829999923706055e+00"/>
          <Range Index="3" Min="0.0000000000000000e+00" Max="1.5936999511718750e+02"/>
          <Range Index="4" Min="0.0000000000000000e+00" Max="5.9000000000000000e+01"/>
          <Range Index="5" Min="0.0000000000000000e+00" Max="9.9900000000000000e+02"/>
          <Range Index="6" Min="1.0000000474974513e-03" Max="6.2820000648498535e+00"/>
          <Range Index="7" Min="1.0001000213623047e+02" Max="6.6265002441406250e+02"/>
        </Ranges>
      </Class>
      <Class ClassIndex="2">
        <Ranges>
          <Range Index="0" Min="4.7300000190734863e+00" Max="2.5434099121093750e+03"/>
          <Range Index="1" Min="-3.9930000305175781e+00" Max="3.9909999370574951e+00"/>
          <Range Index="2" Min="0.0000000000000000e+00" Max="6.2829999923706055e+00"/>
          <Range Index="3" Min="0.0000000000000000e+00" Max="2.5873001098632812e+02"/>
          <Range Index="4" Min="0.0000000000000000e+00" Max="6.1000000000000000e+01"/>
          <Range Index="5" Min="0.0000000000000000e+00" Max="9.9900000000000000e+02"/>
          <Range Index="6" Min="0.0000000000000000e+00" Max="6.2829999923706055e+00"/>
          <Range Index="7" Min="1.0001000213623047e+02" Max="1.5854799804687500e+03"/>
        </Ranges>
      </Class>
    </Transform>
  </Transformations>
  <MVAPdfs/>
  <Weights>
    <Layout NLayers="5">
      <Layer Index="0" NNeurons="9">
        <Neuron NSynapses="3">
          -3.0211318837056766e+00 2.6102972821436610e+00 1.7003059882263061e+00 
        </Neuron>
        <Neuron NSynapses="3">
          -3.2927397335747045e-02 -2.3975524654832484e-01 -1.7699606640544516e-01 
        </Neuron>
        <Neuron NSynapses="3">
          -2.7074986384813985e-02 2.8551876108735321e+00 -1.9023114649238770e+00 
        </Neuron>
        <Neuron NSynapses="3">
          2.3437397494985082e-01 -1.0822902096702294e+00 2.8446410575853237e-01 
        </Neuron>
        <Neuron NSynapses="3">
          -4.7653381655927191e-01 1.3700570024518337e+00 6.7751377245551891e-01 
        </Neuron>
        <Neuron NSynapses="3">
          2.0796089730828684e+00 1.0554361770245300e+00 3.4091150019690044e+00 
        </Neuron>
        <Neuron NSynapses="3">
          -9.0632463755910886e-02 2.7351102450589728e+00 -2.0209212804656866e+00 
        </Neuron>
        <Neuron NSynapses="3">
          -8.4575123910235295e+00 1.4407872679235303e+00 -8.7626956962273628e-01 
        </Neuron>
        <Neuron NSynapses="3">
          -8.0615318822337638e+00 -4.0662132889901287e-01 1.3168163032299833e+00 
        </Neuron>
      </Layer>
      <Layer Index="1" NNeurons="4">
        <Neuron NSynapses="4">
          -2.7760751961586578e+00 -7.2299772210040176e+00 -7.9447439821742016e-01 8.5117545786568183e-01 
        </Neuron>
        <Neuron NSynapses="4">
          1.5355646141596688e+00 2.8161693490342743e+00 2.2293965975249055e-01 2.7575425012631394e-01 
        </Neuron>
        <Neuron NSynapses="4">
          5.1744140005943307e-01 1.6935451280781664e+00 1.7091834782672810e+00 -2.7888497020807996e+00 
        </Neuron>
        <Neuron NSynapses="4">
          1.9176565459730826e-02 3.8050102473186445e+00 -2.1935327386336159e-01 1.4325590441023690e+00 
        </Neuron>
      </Layer>
      <Layer Index="2" NNeurons="5">
        <Neuron NSynapses="8">
          1.5815821946050383e+00 -7.3503286459613904e-01 -1.6812342557968212e+00 3.4480063967109675e-01 -7.2588710236948228e-01 1.0992102020810359e+00 -2.0816952722462412e-01 8.4550035846030114e-01 
        </Neuron>
        <Neuron NSynapses="8">
          2.5941467203640123e+00 -1.7110638624624552e+00 1.2766611395041265e+00 -2.2839007657634043e+00 -2.0996862556977036e+00 -1.7699202850678484e+00 -5.7280610398037659e+00 8.1741525017769257e-01 
        </Neuron>
        <Neuron NSynapses="8">
          5.7291906815787663e-01 -1.6044247014470434e+00 2.9860153503735382e-01 -6.9933621571890947e-01 -3.2955684646843654e-02 1.1604876653045255e+00 -6.9364337014728561e-01 -8.7862742324969501e-01 
        </Neuron>
        <Neuron NSynapses="8">
          -2.3502276590524507e+00 4.8662418982700711e-01 -9.3178164177788492e-01 -1.5223972469994602e+00 -1.8092464285191934e+00 -5.4889547031228769e-01 2.2526686677866703e+00 -3.3558210101854985e-01 
        </Neuron>
        <Neuron NSynapses="8">
          -1.0630357490836624e+00 -2.2494514503271219e+00 -1.9848540801857419e+00 3.4340418245706483e-01 -4.1454120734820321e-01 4.1267815228752014e-01 9.2982056521126633e-01 -9.7115813056422862e-01 
        </Neuron>
      </Layer>
      <Layer Index="3" NNeurons="9">
        <Neuron NSynapses="1">
          4.2100227869654117e-01 
        </Neuron>
        <Neuron NSynapses="1">
          -3.0871524199270872e-01 
        </Neuron>
        <Neuron NSynapses="1">
          -2.2768911112363135e-01 
        </Neuron>
        <Neuron NSynapses="1">
          8.7980101215375073e-01 
        </Neuron>
        <Neuron NSynapses="1">
          -2.3868599206735008e-01 
        </Neuron>
        <Neuron NSynapses="1">
          -3.9570367473356954e-01 
        </Neuron>
        <Neuron NSynapses="1">
          -8.7854635075229115e-01 
        </Neuron>
        <Neuron NSynapses="1">
          6.8466294427605739e-02 
        </Neuron>
        <Neuron NSynapses="1">
          8.4246390383526881e-01 
        </Neuron>
      </Layer>
      <Layer Index="4" NNeurons="1">
        <Neuron NSynapses="0"/>
      </Layer>
    </Layout>
  </Weights>
</MethodSetup>
