<?xml version="1.0"?>
<MethodSetup Method="MLP::MLP4-BP">
  <GeneralInfo>
    <Info name="TMVA Release" value="4.2.0 [262656]"/>
    <Info name="ROOT Release" value="5.34/18 [336402]"/>
    <Info name="Creator" value="zxb0111"/>
    <Info name="Date" value="Tue Dec  2 17:13:36 2014"/>
    <Info name="Host" value="Linux localhost.localdomain 2.6.32-431.17.1.el6.x86_64 #1 SMP Wed May 7 14:14:17 CDT 2014 x86_64 x86_64 x86_64 GNU/Linux"/>
    <Info name="Dir" value="/home/zxb0111/seminar"/>
    <Info name="Training events" value="35264"/>
    <Info name="TrainingTime" value="3.81125807e+02"/>
    <Info name="AnalysisType" value="Classification"/>
  </GeneralInfo>
  <Options>
    <Option name="NCycles" modified="Yes">600</Option>
    <Option name="HiddenLayers" modified="Yes">N,N,N,N</Option>
    <Option name="NeuronType" modified="Yes">sigmoid</Option>
    <Option name="RandomSeed" modified="No">1</Option>
    <Option name="EstimatorType" modified="No">MSE</Option>
    <Option name="NeuronInputType" modified="No">sum</Option>
    <Option name="V" modified="No">False</Option>
    <Option name="VerbosityLevel" modified="No">Default</Option>
    <Option name="VarTransform" modified="Yes">N</Option>
    <Option name="H" modified="No">False</Option>
    <Option name="CreateMVAPdfs" modified="No">False</Option>
    <Option name="IgnoreNegWeightsInTraining" modified="No">False</Option>
    <Option name="TrainingMethod" modified="Yes">BP</Option>
    <Option name="LearningRate" modified="No">2.000000e-02</Option>
    <Option name="DecayRate" modified="No">1.000000e-02</Option>
    <Option name="TestRate" modified="Yes">5</Option>
    <Option name="EpochMonitoring" modified="No">False</Option>
    <Option name="Sampling" modified="No">1.000000e+00</Option>
    <Option name="SamplingEpoch" modified="No">1.000000e+00</Option>
    <Option name="SamplingImportance" modified="No">1.000000e+00</Option>
    <Option name="SamplingTraining" modified="No">True</Option>
    <Option name="SamplingTesting" modified="No">False</Option>
    <Option name="ResetStep" modified="No">50</Option>
    <Option name="Tau" modified="No">3.000000e+00</Option>
    <Option name="BPMode" modified="No">sequential</Option>
    <Option name="BatchSize" modified="No">-1</Option>
    <Option name="ConvergenceImprove" modified="No">1.000000e-30</Option>
    <Option name="ConvergenceTests" modified="No">-1</Option>
    <Option name="UseRegulator" modified="Yes">False</Option>
    <Option name="UpdateLimit" modified="No">10000</Option>
    <Option name="CalculateErrors" modified="No">False</Option>
    <Option name="WeightRange" modified="No">1.000000e+00</Option>
  </Options>
  <Variables NVar="8">
    <Variable VarIndex="0" Expression="Jet.PT" Label="Jet.PT" Title="Jet.PT" Unit="" Internal="Jet.PT" Type="F" Min="4.73000002e+00" Max="2.14732007e+03"/>
    <Variable VarIndex="1" Expression="Jet.Eta" Label="Jet.Eta" Title="Jet.Eta" Unit="" Internal="Jet.Eta" Type="F" Min="-3.99399996e+00" Max="3.99799991e+00"/>
    <Variable VarIndex="2" Expression="Jet.Phi" Label="Jet.Phi" Title="Jet.Phi" Unit="" Internal="Jet.Phi" Type="F" Min="0.00000000e+00" Max="6.28299999e+00"/>
    <Variable VarIndex="3" Expression="Jet.Mass" Label="Jet.Mass" Title="Jet.Mass" Unit="" Internal="Jet.Mass" Type="F" Min="0.00000000e+00" Max="2.51460007e+02"/>
    <Variable VarIndex="4" Expression="Jet.Ntrk" Label="Jet.Ntrk" Title="Jet.Ntrk" Unit="" Internal="Jet.Ntrk" Type="F" Min="0.00000000e+00" Max="7.70000000e+01"/>
    <Variable VarIndex="5" Expression="Jet.EhadOverEem" Label="Jet.EhadOverEem" Title="Jet.EhadOverEem" Unit="" Internal="Jet.EhadOverEem" Type="F" Min="0.00000000e+00" Max="9.99000000e+02"/>
    <Variable VarIndex="6" Expression="MissingET.Phi" Label="MissingET.Phi" Title="MissingET.Phi" Unit="" Internal="MissingET.Phi" Type="F" Min="0.00000000e+00" Max="6.28299999e+00"/>
    <Variable VarIndex="7" Expression="MissingET.MET" Label="MissingET.MET" Title="MissingET.MET" Unit="" Internal="MissingET.MET" Type="F" Min="3.57999992e+00" Max="1.58547998e+03"/>
  </Variables>
  <Spectators NSpec="0"/>
  <Classes NClass="2">
    <Class Name="Signal" Index="0"/>
    <Class Name="Background" Index="1"/>
  </Classes>
  <Transformations NTransformations="1">
    <Transform Name="Normalize">
      <Selection>
        <Input NInputs="8">
          <Input Type="Variable" Label="Jet.PT" Expression="Jet.PT"/>
          <Input Type="Variable" Label="Jet.Eta" Expression="Jet.Eta"/>
          <Input Type="Variable" Label="Jet.Phi" Expression="Jet.Phi"/>
          <Input Type="Variable" Label="Jet.Mass" Expression="Jet.Mass"/>
          <Input Type="Variable" Label="Jet.Ntrk" Expression="Jet.Ntrk"/>
          <Input Type="Variable" Label="Jet.EhadOverEem" Expression="Jet.EhadOverEem"/>
          <Input Type="Variable" Label="MissingET.Phi" Expression="MissingET.Phi"/>
          <Input Type="Variable" Label="MissingET.MET" Expression="MissingET.MET"/>
        </Input>
        <Output NOutputs="8">
          <Output Type="Variable" Label="Jet.PT" Expression="Jet.PT"/>
          <Output Type="Variable" Label="Jet.Eta" Expression="Jet.Eta"/>
          <Output Type="Variable" Label="Jet.Phi" Expression="Jet.Phi"/>
          <Output Type="Variable" Label="Jet.Mass" Expression="Jet.Mass"/>
          <Output Type="Variable" Label="Jet.Ntrk" Expression="Jet.Ntrk"/>
          <Output Type="Variable" Label="Jet.EhadOverEem" Expression="Jet.EhadOverEem"/>
          <Output Type="Variable" Label="MissingET.Phi" Expression="MissingET.Phi"/>
          <Output Type="Variable" Label="MissingET.MET" Expression="MissingET.MET"/>
        </Output>
      </Selection>
      <Class ClassIndex="0">
        <Ranges>
          <Range Index="0" Min="5.0000000000000000e+00" Max="2.1473200683593750e+03"/>
          <Range Index="1" Min="-3.9809999465942383e+00" Max="3.9979999065399170e+00"/>
          <Range Index="2" Min="0.0000000000000000e+00" Max="6.2829999923706055e+00"/>
          <Range Index="3" Min="0.0000000000000000e+00" Max="2.5146000671386719e+02"/>
          <Range Index="4" Min="0.0000000000000000e+00" Max="6.0000000000000000e+01"/>
          <Range Index="5" Min="0.0000000000000000e+00" Max="9.9900000000000000e+02"/>
          <Range Index="6" Min="0.0000000000000000e+00" Max="6.2829999923706055e+00"/>
          <Range Index="7" Min="3.5799999237060547e+00" Max="1.5854799804687500e+03"/>
        </Ranges>
      </Class>
      <Class ClassIndex="1">
        <Ranges>
          <Range Index="0" Min="4.7300000190734863e+00" Max="8.1752001953125000e+02"/>
          <Range Index="1" Min="-3.9939999580383301e+00" Max="3.9969999790191650e+00"/>
          <Range Index="2" Min="0.0000000000000000e+00" Max="6.2829999923706055e+00"/>
          <Range Index="3" Min="0.0000000000000000e+00" Max="1.8416999816894531e+02"/>
          <Range Index="4" Min="0.0000000000000000e+00" Max="7.7000000000000000e+01"/>
          <Range Index="5" Min="0.0000000000000000e+00" Max="9.9900000000000000e+02"/>
          <Range Index="6" Min="1.0000000474974513e-03" Max="6.2820000648498535e+00"/>
          <Range Index="7" Min="1.0001000213623047e+02" Max="6.6265002441406250e+02"/>
        </Ranges>
      </Class>
      <Class ClassIndex="2">
        <Ranges>
          <Range Index="0" Min="4.7300000190734863e+00" Max="2.1473200683593750e+03"/>
          <Range Index="1" Min="-3.9939999580383301e+00" Max="3.9979999065399170e+00"/>
          <Range Index="2" Min="0.0000000000000000e+00" Max="6.2829999923706055e+00"/>
          <Range Index="3" Min="0.0000000000000000e+00" Max="2.5146000671386719e+02"/>
          <Range Index="4" Min="0.0000000000000000e+00" Max="7.7000000000000000e+01"/>
          <Range Index="5" Min="0.0000000000000000e+00" Max="9.9900000000000000e+02"/>
          <Range Index="6" Min="0.0000000000000000e+00" Max="6.2829999923706055e+00"/>
          <Range Index="7" Min="3.5799999237060547e+00" Max="1.5854799804687500e+03"/>
        </Ranges>
      </Class>
    </Transform>
  </Transformations>
  <MVAPdfs/>
  <Weights>
    <Layout NLayers="6">
      <Layer Index="0" NNeurons="9">
        <Neuron NSynapses="8">
          -5.1582848405860963e-02 3.2295224873918622e+00 5.7651542558395630e-01 3.9604262603148701e+00 -2.0520351850643248e+00 6.9078700327767955e+00 2.1909314047086992e-01 1.9626289919220428e+00 
        </Neuron>
        <Neuron NSynapses="8">
          -7.1505511319110066e-02 5.7443417956942112e-02 -1.5819595881357158e+00 -6.8279605383039427e-02 -1.2008352984426554e+00 1.0538322033360693e-01 -7.0549358638419685e-02 7.5139255745548716e-01 
        </Neuron>
        <Neuron NSynapses="8">
          -1.2414334892853199e-01 8.9027939716367036e-02 -1.8564375356112459e-01 1.8260243864957229e+00 -4.1442056820523915e-01 -2.0246653895907751e-01 -4.4497299217164726e-01 2.0362845236365307e-01 
        </Neuron>
        <Neuron NSynapses="8">
          -7.1923582208802878e-02 4.7124349714281444e-01 1.2508582140178217e+00 -1.5089938510355165e+00 -1.9363475783716164e+00 5.8590020739683257e-01 1.0923017049639707e+00 1.7035917667643534e+00 
        </Neuron>
        <Neuron NSynapses="8">
          6.0940315134520295e-01 -5.3867793749372972e-01 9.1287279358181136e-02 1.0508681454701378e+00 -1.4509628165085331e+00 4.7818441276289703e-01 -9.2573793486750278e-01 1.1638260663491140e+00 
        </Neuron>
        <Neuron NSynapses="8">
          3.4153794373328479e+00 9.9235116751389851e-01 1.5819281212690288e+00 1.0735939690666367e+00 -8.1781323898123826e-01 -4.0055850186839130e+00 5.9435689525757385e-01 2.0726098373575100e-01 
        </Neuron>
        <Neuron NSynapses="8">
          -4.2333268809215376e-02 3.0208707556985043e-02 1.4752640588712915e+00 1.8420617992716035e+00 -1.6033124210341714e+00 -1.8799058649868802e-01 -4.5124916803340454e-01 -9.6871857937675998e-01 
        </Neuron>
        <Neuron NSynapses="8">
          -8.2614750341753016e+00 -9.1987217476301382e+00 1.2298746092125150e+00 1.1565736085399885e+00 -1.6561549422394690e+00 3.2081419560437840e+00 1.1778146761268624e+00 7.5611373180268615e-01 
        </Neuron>
        <Neuron NSynapses="8">
          -3.5458959726493537e+00 -3.0736911393220887e+00 5.3739829653216586e-01 7.8445457957979414e-01 8.4878367071052285e-01 3.1746637869575896e+00 -6.6425755694188648e-01 -1.5627777934216061e+00 
        </Neuron>
      </Layer>
      <Layer Index="1" NNeurons="9">
        <Neuron NSynapses="8">
          1.3421706022498689e+00 1.4105051342899906e+00 2.2567602291830720e+00 -1.1119802131912710e+00 -6.6227589873869386e+00 -1.7203982677557323e+00 4.2181498713403681e-01 1.4672114584347837e+00 
        </Neuron>
        <Neuron NSynapses="8">
          2.4973159552721191e+00 1.8050084224449197e+00 3.2808511526227151e+00 -3.4422743253754207e+00 -5.3144744579516985e+00 -3.6672415878495407e-01 5.7452020379137536e-01 -7.7832178449662304e-01 
        </Neuron>
        <Neuron NSynapses="8">
          -1.4179902074531814e+00 -1.6984600660211311e+00 -1.8651870346084437e-01 -3.3288622531557432e-01 1.7193792854709815e+00 -1.7442392248894063e+00 -7.9593779738297177e-01 1.7359837626829306e+00 
        </Neuron>
        <Neuron NSynapses="8">
          -7.4583537934355926e-01 -1.5261737105937192e+00 -2.2375091594170375e+00 1.7204527833802914e+00 -2.8638523398030866e+00 -2.1323437450904299e+00 8.6365800208789989e-01 2.0233748733182497e+00 
        </Neuron>
        <Neuron NSynapses="8">
          -1.9018057416276837e+00 1.2633212536466756e+00 -2.2945723716256308e+00 -1.2259399921547693e-02 2.4776233886530745e+00 4.8854962707817934e-01 -2.2571267466958003e+00 -6.4316785860362061e-02 
        </Neuron>
        <Neuron NSynapses="8">
          2.2624807012196338e-01 5.9253586388464041e-01 -5.1940616988010966e+00 4.6470413948521117e+00 -5.6585280340885269e-01 -1.5141512882203094e+00 8.9430026015999753e-01 -1.1873350250796573e+00 
        </Neuron>
        <Neuron NSynapses="8">
          -1.3562251101512133e+00 1.5410189502291241e-01 -3.1950167284227904e-01 1.5604968787490425e+00 4.3966868485209099e-01 -3.0702433554365360e-01 -3.9209580285781864e-01 5.9123604860701751e-01 
        </Neuron>
        <Neuron NSynapses="8">
          -1.8016519916502107e+00 1.0548895932241584e+00 3.7529791437639633e-02 -1.7460031588061797e+00 6.8555953990616281e-01 -1.4356674198660537e+00 6.3698211436831104e-02 1.1504105425490982e+00 
        </Neuron>
        <Neuron NSynapses="8">
          1.0231862363516628e+00 -2.2778992558646554e+00 -1.0700527493250549e+00 2.3436182245901995e+00 4.1902639983416039e+00 3.2122693623839998e-01 -1.9136067659201992e+00 -5.7680724112808068e-01 
        </Neuron>
      </Layer>
      <Layer Index="2" NNeurons="9">
        <Neuron NSynapses="8">
          -1.3388903593970596e+00 1.3923585264151790e+00 1.2266438676516505e+00 -1.0639191558909140e+00 7.9218932340813464e-01 -1.0426229304298387e+00 -1.6718009413190666e+00 7.4978439594700930e-01 
        </Neuron>
        <Neuron NSynapses="8">
          1.7216179014558850e+00 -9.4936678297307631e-01 -5.2262430521504355e-01 -2.7298921268939574e-01 2.3785852905855291e+00 -5.0508300671703044e-01 3.1541752287535896e-01 -1.2561053221463554e+00 
        </Neuron>
        <Neuron NSynapses="8">
          2.4727935228239422e+00 1.0659411079065759e+00 7.6238441491792164e-01 1.1193559548717706e-01 4.3031926769639552e+00 -2.5899376685411877e+00 -1.8540130033868631e+00 3.7095300151644248e+00 
        </Neuron>
        <Neuron NSynapses="8">
          -2.7329485971248708e+00 -1.8439330290713054e+00 1.3702068929637363e+00 1.9741976876855554e+00 -2.2109836890048884e+00 3.3130578112240339e+00 2.2769639690737784e+00 -4.3516315793664031e+00 
        </Neuron>
        <Neuron NSynapses="8">
          2.2246361456767576e+00 1.7620232978468120e+00 2.9806432620905116e-01 -1.5974082131618472e+00 -5.2295770375013939e+00 -1.3997237747178553e+00 3.3401541239543020e+00 -3.5577390531967299e+00 
        </Neuron>
        <Neuron NSynapses="8">
          -1.6865111294471970e-02 -2.8790193008296061e-01 1.3922831458703616e-01 2.3746836949002184e+00 -1.2034971026364354e+00 -1.3624803329512412e+00 -2.5797844467413605e-01 8.4807833800519827e-01 
        </Neuron>
        <Neuron NSynapses="8">
          1.3771048232238456e+00 9.1705250645461334e-01 2.6013037533744587e-01 -6.0969219792856100e-01 -1.9200815095862800e+00 1.2939924897695090e+00 4.1283319028700766e-01 -1.4353413551168557e+00 
        </Neuron>
        <Neuron NSynapses="8">
          -1.0736650488362802e+00 3.2107470116759193e-03 2.2874278364652667e-01 -1.8532409237274250e+00 1.3663519213202351e+00 1.5087542988513110e+00 -9.8006482231749736e-01 -1.0049037204207245e-01 
        </Neuron>
        <Neuron NSynapses="8">
          5.3319077797130598e-01 2.9746462539188775e-02 3.4603832276580504e-01 6.9277073364386044e-01 -1.7019941242593954e+00 -4.5519775380474958e-01 1.5855947924462346e+00 9.0292416388242702e-01 
        </Neuron>
      </Layer>
      <Layer Index="3" NNeurons="9">
        <Neuron NSynapses="8">
          2.6766951627201516e+00 2.5886884521716103e-01 1.4035322403612518e+00 -1.6768962860334240e+00 -1.5475313699096089e+00 1.5082943748656205e-01 -1.5659909342370115e+00 2.1340743224779130e-01 
        </Neuron>
        <Neuron NSynapses="8">
          2.4302509816114890e+00 -1.3487932486850933e+00 9.6902232020596210e-02 -1.9555794925870729e-01 -1.8260859896472357e+00 -9.3708149025442578e-01 9.0793994523442612e-01 -6.4391872046227927e-01 
        </Neuron>
        <Neuron NSynapses="8">
          3.7655959613163481e-01 -1.3595876988849527e+00 9.8979966904890537e-01 -1.8734063377691292e+00 7.6086528992492752e-01 -4.6910269844432251e-01 -1.7321138108935135e+00 -2.2448664277775996e+00 
        </Neuron>
        <Neuron NSynapses="8">
          -2.8427521560100399e+00 -6.8115154204588102e-01 -2.6754640544374908e+00 -1.6867618257238495e+00 -1.8733530951233985e+00 -9.4455376374478955e-02 -1.3287249239787067e+00 -2.0923290881235630e+00 
        </Neuron>
        <Neuron NSynapses="8">
          9.2334330265863199e-02 -8.8151191971113441e-01 9.9286667648728066e-01 -1.0651234913955112e+00 4.8034045151166471e-01 6.3189600376911983e+00 1.1770780500939693e+00 -9.6608139049142849e-01 
        </Neuron>
        <Neuron NSynapses="8">
          -4.1499301967854558e+00 -1.1340748297999590e+00 -9.9827787201184726e-01 -1.5975600263144596e+00 1.2570877778160397e-01 -6.5632682689469646e-01 1.7180820495073374e+00 -1.1552532212986715e+00 
        </Neuron>
        <Neuron NSynapses="8">
          -2.4169699545566645e-01 -6.0448559477140151e-01 -3.4892034681341260e+00 1.2112384350807393e+00 9.4279404990522497e-01 -3.6546577390126926e+00 -1.0424795744546693e+00 -2.2373818323293901e-01 
        </Neuron>
        <Neuron NSynapses="8">
          2.6223805304845023e+00 4.2621121112563531e-01 -1.4841001051741159e-01 -2.9487374081095169e-01 1.4900257440299749e+00 4.1330401991542765e+00 8.3949580330231355e-01 -3.5422938103466867e-01 
        </Neuron>
        <Neuron NSynapses="8">
          -5.7432167841382376e-01 -4.8044224945030856e-01 -2.1770215393075825e+00 -6.1845927425707170e-01 -1.8589132793420762e+00 -1.7959739734114735e+00 -1.7854464716718588e+00 7.2084576061461558e-01 
        </Neuron>
      </Layer>
      <Layer Index="4" NNeurons="9">
        <Neuron NSynapses="1">
          -1.2109425950102080e+00 
        </Neuron>
        <Neuron NSynapses="1">
          1.5529389649429652e+00 
        </Neuron>
        <Neuron NSynapses="1">
          -2.7285803735625289e+00 
        </Neuron>
        <Neuron NSynapses="1">
          1.0688961584941825e+00 
        </Neuron>
        <Neuron NSynapses="1">
          -1.0193640985553982e+00 
        </Neuron>
        <Neuron NSynapses="1">
          1.3531728379863603e+00 
        </Neuron>
        <Neuron NSynapses="1">
          1.2410108936745445e-01 
        </Neuron>
        <Neuron NSynapses="1">
          -5.7664919994811992e-01 
        </Neuron>
        <Neuron NSynapses="1">
          1.0634485694293454e+00 
        </Neuron>
      </Layer>
      <Layer Index="5" NNeurons="1">
        <Neuron NSynapses="0"/>
      </Layer>
    </Layout>
  </Weights>
</MethodSetup>
