<?xml version="1.0"?>
<MethodSetup Method="MLP::Distro15Increase">
  <GeneralInfo>
    <Info name="TMVA Release" value="4.2.0 [262656]"/>
    <Info name="ROOT Release" value="5.34/18 [336402]"/>
    <Info name="Creator" value="zxb0111"/>
    <Info name="Date" value="Thu Dec  4 11:46:06 2014"/>
    <Info name="Host" value="Linux localhost.localdomain 2.6.32-431.17.1.el6.x86_64 #1 SMP Wed May 7 14:14:17 CDT 2014 x86_64 x86_64 x86_64 GNU/Linux"/>
    <Info name="Dir" value="/home/zxb0111/seminar"/>
    <Info name="Training events" value="34086"/>
    <Info name="TrainingTime" value="1.96232206e+02"/>
    <Info name="AnalysisType" value="Classification"/>
  </GeneralInfo>
  <Options>
    <Option name="NCycles" modified="Yes">600</Option>
    <Option name="HiddenLayers" modified="Yes">8,4,3</Option>
    <Option name="NeuronType" modified="Yes">sigmoid</Option>
    <Option name="RandomSeed" modified="No">1</Option>
    <Option name="EstimatorType" modified="No">MSE</Option>
    <Option name="NeuronInputType" modified="No">sum</Option>
    <Option name="V" modified="No">False</Option>
    <Option name="VerbosityLevel" modified="No">Default</Option>
    <Option name="VarTransform" modified="Yes">N</Option>
    <Option name="H" modified="No">False</Option>
    <Option name="CreateMVAPdfs" modified="No">False</Option>
    <Option name="IgnoreNegWeightsInTraining" modified="No">False</Option>
    <Option name="TrainingMethod" modified="No">BP</Option>
    <Option name="LearningRate" modified="No">2.000000e-02</Option>
    <Option name="DecayRate" modified="No">1.000000e-02</Option>
    <Option name="TestRate" modified="Yes">5</Option>
    <Option name="EpochMonitoring" modified="No">False</Option>
    <Option name="Sampling" modified="No">1.000000e+00</Option>
    <Option name="SamplingEpoch" modified="No">1.000000e+00</Option>
    <Option name="SamplingImportance" modified="No">1.000000e+00</Option>
    <Option name="SamplingTraining" modified="No">True</Option>
    <Option name="SamplingTesting" modified="No">False</Option>
    <Option name="ResetStep" modified="No">50</Option>
    <Option name="Tau" modified="No">3.000000e+00</Option>
    <Option name="BPMode" modified="No">sequential</Option>
    <Option name="BatchSize" modified="No">-1</Option>
    <Option name="ConvergenceImprove" modified="No">1.000000e-30</Option>
    <Option name="ConvergenceTests" modified="No">-1</Option>
    <Option name="UseRegulator" modified="Yes">False</Option>
    <Option name="UpdateLimit" modified="No">10000</Option>
    <Option name="CalculateErrors" modified="No">False</Option>
    <Option name="WeightRange" modified="No">1.000000e+00</Option>
  </Options>
  <Variables NVar="8">
    <Variable VarIndex="0" Expression="Jet.PT" Label="Jet.PT" Title="Jet.PT" Unit="" Internal="Jet.PT" Type="F" Min="4.73000002e+00" Max="2.54340991e+03"/>
    <Variable VarIndex="1" Expression="Jet.Eta" Label="Jet.Eta" Title="Jet.Eta" Unit="" Internal="Jet.Eta" Type="F" Min="-3.99300003e+00" Max="3.99099994e+00"/>
    <Variable VarIndex="2" Expression="Jet.Phi" Label="Jet.Phi" Title="Jet.Phi" Unit="" Internal="Jet.Phi" Type="F" Min="0.00000000e+00" Max="6.28299999e+00"/>
    <Variable VarIndex="3" Expression="Jet.Mass" Label="Jet.Mass" Title="Jet.Mass" Unit="" Internal="Jet.Mass" Type="F" Min="0.00000000e+00" Max="2.58730011e+02"/>
    <Variable VarIndex="4" Expression="Jet.Ntrk" Label="Jet.Ntrk" Title="Jet.Ntrk" Unit="" Internal="Jet.Ntrk" Type="F" Min="0.00000000e+00" Max="6.10000000e+01"/>
    <Variable VarIndex="5" Expression="Jet.EhadOverEem" Label="Jet.EhadOverEem" Title="Jet.EhadOverEem" Unit="" Internal="Jet.EhadOverEem" Type="F" Min="0.00000000e+00" Max="9.99000000e+02"/>
    <Variable VarIndex="6" Expression="MissingET.Phi" Label="MissingET.Phi" Title="MissingET.Phi" Unit="" Internal="MissingET.Phi" Type="F" Min="0.00000000e+00" Max="6.28299999e+00"/>
    <Variable VarIndex="7" Expression="MissingET.MET" Label="MissingET.MET" Title="MissingET.MET" Unit="" Internal="MissingET.MET" Type="F" Min="1.00010002e+02" Max="1.58547998e+03"/>
  </Variables>
  <Spectators NSpec="0"/>
  <Classes NClass="2">
    <Class Name="Signal" Index="0"/>
    <Class Name="Background" Index="1"/>
  </Classes>
  <Transformations NTransformations="1">
    <Transform Name="Normalize">
      <Selection>
        <Input NInputs="8">
          <Input Type="Variable" Label="Jet.PT" Expression="Jet.PT"/>
          <Input Type="Variable" Label="Jet.Eta" Expression="Jet.Eta"/>
          <Input Type="Variable" Label="Jet.Phi" Expression="Jet.Phi"/>
          <Input Type="Variable" Label="Jet.Mass" Expression="Jet.Mass"/>
          <Input Type="Variable" Label="Jet.Ntrk" Expression="Jet.Ntrk"/>
          <Input Type="Variable" Label="Jet.EhadOverEem" Expression="Jet.EhadOverEem"/>
          <Input Type="Variable" Label="MissingET.Phi" Expression="MissingET.Phi"/>
          <Input Type="Variable" Label="MissingET.MET" Expression="MissingET.MET"/>
        </Input>
        <Output NOutputs="8">
          <Output Type="Variable" Label="Jet.PT" Expression="Jet.PT"/>
          <Output Type="Variable" Label="Jet.Eta" Expression="Jet.Eta"/>
          <Output Type="Variable" Label="Jet.Phi" Expression="Jet.Phi"/>
          <Output Type="Variable" Label="Jet.Mass" Expression="Jet.Mass"/>
          <Output Type="Variable" Label="Jet.Ntrk" Expression="Jet.Ntrk"/>
          <Output Type="Variable" Label="Jet.EhadOverEem" Expression="Jet.EhadOverEem"/>
          <Output Type="Variable" Label="MissingET.Phi" Expression="MissingET.Phi"/>
          <Output Type="Variable" Label="MissingET.MET" Expression="MissingET.MET"/>
        </Output>
      </Selection>
      <Class ClassIndex="0">
        <Ranges>
          <Range Index="0" Min="5.0000000000000000e+00" Max="2.5434099121093750e+03"/>
          <Range Index="1" Min="-3.9909999370574951e+00" Max="3.9909999370574951e+00"/>
          <Range Index="2" Min="0.0000000000000000e+00" Max="6.2829999923706055e+00"/>
          <Range Index="3" Min="0.0000000000000000e+00" Max="2.5873001098632812e+02"/>
          <Range Index="4" Min="0.0000000000000000e+00" Max="6.1000000000000000e+01"/>
          <Range Index="5" Min="0.0000000000000000e+00" Max="9.9900000000000000e+02"/>
          <Range Index="6" Min="0.0000000000000000e+00" Max="6.2829999923706055e+00"/>
          <Range Index="7" Min="1.0001999664306641e+02" Max="1.5854799804687500e+03"/>
        </Ranges>
      </Class>
      <Class ClassIndex="1">
        <Ranges>
          <Range Index="0" Min="4.7300000190734863e+00" Max="8.1752001953125000e+02"/>
          <Range Index="1" Min="-3.9930000305175781e+00" Max="3.9900000095367432e+00"/>
          <Range Index="2" Min="0.0000000000000000e+00" Max="6.2829999923706055e+00"/>
          <Range Index="3" Min="0.0000000000000000e+00" Max="1.5936999511718750e+02"/>
          <Range Index="4" Min="0.0000000000000000e+00" Max="5.9000000000000000e+01"/>
          <Range Index="5" Min="0.0000000000000000e+00" Max="9.9900000000000000e+02"/>
          <Range Index="6" Min="1.0000000474974513e-03" Max="6.2820000648498535e+00"/>
          <Range Index="7" Min="1.0001000213623047e+02" Max="6.6265002441406250e+02"/>
        </Ranges>
      </Class>
      <Class ClassIndex="2">
        <Ranges>
          <Range Index="0" Min="4.7300000190734863e+00" Max="2.5434099121093750e+03"/>
          <Range Index="1" Min="-3.9930000305175781e+00" Max="3.9909999370574951e+00"/>
          <Range Index="2" Min="0.0000000000000000e+00" Max="6.2829999923706055e+00"/>
          <Range Index="3" Min="0.0000000000000000e+00" Max="2.5873001098632812e+02"/>
          <Range Index="4" Min="0.0000000000000000e+00" Max="6.1000000000000000e+01"/>
          <Range Index="5" Min="0.0000000000000000e+00" Max="9.9900000000000000e+02"/>
          <Range Index="6" Min="0.0000000000000000e+00" Max="6.2829999923706055e+00"/>
          <Range Index="7" Min="1.0001000213623047e+02" Max="1.5854799804687500e+03"/>
        </Ranges>
      </Class>
    </Transform>
  </Transformations>
  <MVAPdfs/>
  <Weights>
    <Layout NLayers="5">
      <Layer Index="0" NNeurons="9">
        <Neuron NSynapses="8">
          -4.1339071672938127e-01 3.7562831567533168e+00 9.7198815341224176e-01 2.0197766590450494e+00 -1.8827433360893282e+00 -1.5849528567377111e+00 -8.2075720524337648e+00 2.1147065063058865e+00 
        </Neuron>
        <Neuron NSynapses="8">
          -6.5088838854707531e-01 -1.1726384968131622e-01 -1.5949338839454200e-01 -2.5853522137504092e-01 -1.3245157232109555e+00 -4.6192721718535779e-01 -1.2437253892360657e-01 7.0199914048017842e-01 
        </Neuron>
        <Neuron NSynapses="8">
          -1.0217806087109083e+00 -9.6744119333450132e-02 1.8064089008202422e+00 1.4506143746183759e+00 -2.8907536335101097e-01 9.9679973353811707e-02 -7.8047803429667400e-03 1.1083979870606006e-01 
        </Neuron>
        <Neuron NSynapses="8">
          -7.3704240585930136e-01 1.6720797493595738e+00 1.0995328175388592e+00 -8.5782704151038069e-01 -1.7689207195836467e+00 -1.4685024600501165e-01 -1.0965456747427751e+00 1.7708151751392367e+00 
        </Neuron>
        <Neuron NSynapses="8">
          6.1475497401522340e-02 -2.9818459609636783e-01 1.1621399415514537e+00 1.2362966894446301e-01 -1.3771361385273606e+00 1.2389395149168219e+00 -7.4940791768345083e-01 1.1736169086335080e+00 
        </Neuron>
        <Neuron NSynapses="8">
          1.3767395196721719e+00 4.5404610114986144e-01 1.0750324184786326e+00 7.4702252683597348e-01 -5.8727503638185496e-01 -1.7053216822791033e+00 3.2508495524641687e+00 3.7483924867420904e-01 
        </Neuron>
        <Neuron NSynapses="8">
          1.4225619588703760e+00 2.1395723425550556e-01 1.8139542524341503e+00 1.5966706687993901e+00 -1.7632667510618061e+00 1.2047619165916095e+00 3.0138482775886377e-01 -7.5675790070876048e-01 
        </Neuron>
        <Neuron NSynapses="8">
          -1.1437275207288351e+00 -9.9237362672638358e+00 1.8421757190117043e+00 7.3641564608436250e-01 -1.4783618298794023e+00 1.6210735116483492e+00 -6.7454263541431347e-01 9.5383779388218359e-01 
        </Neuron>
        <Neuron NSynapses="8">
          1.9513068602619510e+00 -2.7219914711126014e+00 1.3143545867715365e+00 -1.2690484028962099e+00 5.9551417529580697e-01 -9.2417134682093227e-01 -4.3831727768755684e+00 -1.7533466796334418e+00 
        </Neuron>
      </Layer>
      <Layer Index="1" NNeurons="9">
        <Neuron NSynapses="4">
          2.8025575987554410e+00 2.9773829147717996e+00 1.5545632272100569e+00 -8.4999235264342818e-02 
        </Neuron>
        <Neuron NSynapses="4">
          -5.6341839125391457e+00 -4.3612671381690271e+00 1.4919632400771738e+00 2.0564722641606167e-01 
        </Neuron>
        <Neuron NSynapses="4">
          2.7886837206683919e+00 1.4443112884851290e+00 1.0834748949937949e+00 -5.1679533911832409e-01 
        </Neuron>
        <Neuron NSynapses="4">
          -2.4396532207365068e-02 6.1035444825557172e-01 1.3582842516294837e+00 -1.0140585307162846e+00 
        </Neuron>
        <Neuron NSynapses="4">
          8.0099789440871916e-01 5.6880312235665609e-01 1.4162998311579406e-01 7.7181388301180404e-02 
        </Neuron>
        <Neuron NSynapses="4">
          2.1138201871818549e+00 -9.6728966595948995e-01 -1.2126879747184323e+00 2.0945003611974564e+00 
        </Neuron>
        <Neuron NSynapses="4">
          -3.0035150243600284e+00 -4.6760120974844588e+00 -4.1305690126786407e+00 -1.5039356033146795e-01 
        </Neuron>
        <Neuron NSynapses="4">
          -1.8125462103590935e+00 -1.5519015348092073e+00 7.5333692657878737e-01 1.6632069153779643e+00 
        </Neuron>
        <Neuron NSynapses="4">
          1.2424694788653641e+00 3.9106991740829464e+00 -5.9246762666402686e-01 -5.7023887243356641e-01 
        </Neuron>
      </Layer>
      <Layer Index="2" NNeurons="5">
        <Neuron NSynapses="3">
          6.5428874321380992e-01 3.6144427142614965e+00 -2.7746057510104736e+00 
        </Neuron>
        <Neuron NSynapses="3">
          2.0606314382028690e+00 4.0223371725621044e+00 -8.1099842628967722e-01 
        </Neuron>
        <Neuron NSynapses="3">
          -9.4630662798305798e-01 3.4308491906391332e+00 1.7995235681583213e-01 
        </Neuron>
        <Neuron NSynapses="3">
          -1.8679055278696586e+00 -2.7556604788194922e-01 -5.1272937699606502e-01 
        </Neuron>
        <Neuron NSynapses="3">
          -1.5220699845030499e+00 -2.9537632247119299e+00 -6.4764817637334560e-01 
        </Neuron>
      </Layer>
      <Layer Index="3" NNeurons="4">
        <Neuron NSynapses="1">
          2.4682430401030997e-01 
        </Neuron>
        <Neuron NSynapses="1">
          1.3029182054806747e+00 
        </Neuron>
        <Neuron NSynapses="1">
          7.6816560205410023e-01 
        </Neuron>
        <Neuron NSynapses="1">
          -4.1384790020421430e-01 
        </Neuron>
      </Layer>
      <Layer Index="4" NNeurons="1">
        <Neuron NSynapses="0"/>
      </Layer>
    </Layout>
  </Weights>
</MethodSetup>
