<?xml version="1.0"?>
<MethodSetup Method="MLP::3 Layers, 33 Nodes Decreasing">
  <GeneralInfo>
    <Info name="TMVA Release" value="4.2.0 [262656]"/>
    <Info name="ROOT Release" value="5.34/18 [336402]"/>
    <Info name="Creator" value="zxb0111"/>
    <Info name="Date" value="Thu Dec  4 22:00:26 2014"/>
    <Info name="Host" value="Linux localhost.localdomain 2.6.32-431.17.1.el6.x86_64 #1 SMP Wed May 7 14:14:17 CDT 2014 x86_64 x86_64 x86_64 GNU/Linux"/>
    <Info name="Dir" value="/home/zxb0111/seminar"/>
    <Info name="Training events" value="34086"/>
    <Info name="TrainingTime" value="4.29900338e+02"/>
    <Info name="AnalysisType" value="Classification"/>
  </GeneralInfo>
  <Options>
    <Option name="NCycles" modified="Yes">600</Option>
    <Option name="HiddenLayers" modified="Yes">16,10,7</Option>
    <Option name="NeuronType" modified="Yes">sigmoid</Option>
    <Option name="RandomSeed" modified="No">1</Option>
    <Option name="EstimatorType" modified="No">MSE</Option>
    <Option name="NeuronInputType" modified="No">sum</Option>
    <Option name="V" modified="No">False</Option>
    <Option name="VerbosityLevel" modified="No">Default</Option>
    <Option name="VarTransform" modified="Yes">N</Option>
    <Option name="H" modified="No">False</Option>
    <Option name="CreateMVAPdfs" modified="No">False</Option>
    <Option name="IgnoreNegWeightsInTraining" modified="No">False</Option>
    <Option name="TrainingMethod" modified="No">BP</Option>
    <Option name="LearningRate" modified="No">2.000000e-02</Option>
    <Option name="DecayRate" modified="No">1.000000e-02</Option>
    <Option name="TestRate" modified="Yes">5</Option>
    <Option name="EpochMonitoring" modified="No">False</Option>
    <Option name="Sampling" modified="No">1.000000e+00</Option>
    <Option name="SamplingEpoch" modified="No">1.000000e+00</Option>
    <Option name="SamplingImportance" modified="No">1.000000e+00</Option>
    <Option name="SamplingTraining" modified="No">True</Option>
    <Option name="SamplingTesting" modified="No">False</Option>
    <Option name="ResetStep" modified="No">50</Option>
    <Option name="Tau" modified="No">3.000000e+00</Option>
    <Option name="BPMode" modified="No">sequential</Option>
    <Option name="BatchSize" modified="No">-1</Option>
    <Option name="ConvergenceImprove" modified="No">1.000000e-30</Option>
    <Option name="ConvergenceTests" modified="No">-1</Option>
    <Option name="UseRegulator" modified="Yes">False</Option>
    <Option name="UpdateLimit" modified="No">10000</Option>
    <Option name="CalculateErrors" modified="No">False</Option>
    <Option name="WeightRange" modified="No">1.000000e+00</Option>
  </Options>
  <Variables NVar="8">
    <Variable VarIndex="0" Expression="Jet.PT" Label="Jet.PT" Title="Jet.PT" Unit="" Internal="Jet.PT" Type="F" Min="4.73000002e+00" Max="2.54340991e+03"/>
    <Variable VarIndex="1" Expression="Jet.Eta" Label="Jet.Eta" Title="Jet.Eta" Unit="" Internal="Jet.Eta" Type="F" Min="-3.99300003e+00" Max="3.99099994e+00"/>
    <Variable VarIndex="2" Expression="Jet.Phi" Label="Jet.Phi" Title="Jet.Phi" Unit="" Internal="Jet.Phi" Type="F" Min="0.00000000e+00" Max="6.28299999e+00"/>
    <Variable VarIndex="3" Expression="Jet.Mass" Label="Jet.Mass" Title="Jet.Mass" Unit="" Internal="Jet.Mass" Type="F" Min="0.00000000e+00" Max="2.58730011e+02"/>
    <Variable VarIndex="4" Expression="Jet.Ntrk" Label="Jet.Ntrk" Title="Jet.Ntrk" Unit="" Internal="Jet.Ntrk" Type="F" Min="0.00000000e+00" Max="6.10000000e+01"/>
    <Variable VarIndex="5" Expression="Jet.EhadOverEem" Label="Jet.EhadOverEem" Title="Jet.EhadOverEem" Unit="" Internal="Jet.EhadOverEem" Type="F" Min="0.00000000e+00" Max="9.99000000e+02"/>
    <Variable VarIndex="6" Expression="MissingET.Phi" Label="MissingET.Phi" Title="MissingET.Phi" Unit="" Internal="MissingET.Phi" Type="F" Min="0.00000000e+00" Max="6.28299999e+00"/>
    <Variable VarIndex="7" Expression="MissingET.MET" Label="MissingET.MET" Title="MissingET.MET" Unit="" Internal="MissingET.MET" Type="F" Min="1.00010002e+02" Max="1.58547998e+03"/>
  </Variables>
  <Spectators NSpec="0"/>
  <Classes NClass="2">
    <Class Name="Signal" Index="0"/>
    <Class Name="Background" Index="1"/>
  </Classes>
  <Transformations NTransformations="1">
    <Transform Name="Normalize">
      <Selection>
        <Input NInputs="8">
          <Input Type="Variable" Label="Jet.PT" Expression="Jet.PT"/>
          <Input Type="Variable" Label="Jet.Eta" Expression="Jet.Eta"/>
          <Input Type="Variable" Label="Jet.Phi" Expression="Jet.Phi"/>
          <Input Type="Variable" Label="Jet.Mass" Expression="Jet.Mass"/>
          <Input Type="Variable" Label="Jet.Ntrk" Expression="Jet.Ntrk"/>
          <Input Type="Variable" Label="Jet.EhadOverEem" Expression="Jet.EhadOverEem"/>
          <Input Type="Variable" Label="MissingET.Phi" Expression="MissingET.Phi"/>
          <Input Type="Variable" Label="MissingET.MET" Expression="MissingET.MET"/>
        </Input>
        <Output NOutputs="8">
          <Output Type="Variable" Label="Jet.PT" Expression="Jet.PT"/>
          <Output Type="Variable" Label="Jet.Eta" Expression="Jet.Eta"/>
          <Output Type="Variable" Label="Jet.Phi" Expression="Jet.Phi"/>
          <Output Type="Variable" Label="Jet.Mass" Expression="Jet.Mass"/>
          <Output Type="Variable" Label="Jet.Ntrk" Expression="Jet.Ntrk"/>
          <Output Type="Variable" Label="Jet.EhadOverEem" Expression="Jet.EhadOverEem"/>
          <Output Type="Variable" Label="MissingET.Phi" Expression="MissingET.Phi"/>
          <Output Type="Variable" Label="MissingET.MET" Expression="MissingET.MET"/>
        </Output>
      </Selection>
      <Class ClassIndex="0">
        <Ranges>
          <Range Index="0" Min="5.0000000000000000e+00" Max="2.5434099121093750e+03"/>
          <Range Index="1" Min="-3.9909999370574951e+00" Max="3.9909999370574951e+00"/>
          <Range Index="2" Min="0.0000000000000000e+00" Max="6.2829999923706055e+00"/>
          <Range Index="3" Min="0.0000000000000000e+00" Max="2.5873001098632812e+02"/>
          <Range Index="4" Min="0.0000000000000000e+00" Max="6.1000000000000000e+01"/>
          <Range Index="5" Min="0.0000000000000000e+00" Max="9.9900000000000000e+02"/>
          <Range Index="6" Min="0.0000000000000000e+00" Max="6.2829999923706055e+00"/>
          <Range Index="7" Min="1.0001999664306641e+02" Max="1.5854799804687500e+03"/>
        </Ranges>
      </Class>
      <Class ClassIndex="1">
        <Ranges>
          <Range Index="0" Min="4.7300000190734863e+00" Max="8.1752001953125000e+02"/>
          <Range Index="1" Min="-3.9930000305175781e+00" Max="3.9900000095367432e+00"/>
          <Range Index="2" Min="0.0000000000000000e+00" Max="6.2829999923706055e+00"/>
          <Range Index="3" Min="0.0000000000000000e+00" Max="1.5936999511718750e+02"/>
          <Range Index="4" Min="0.0000000000000000e+00" Max="5.9000000000000000e+01"/>
          <Range Index="5" Min="0.0000000000000000e+00" Max="9.9900000000000000e+02"/>
          <Range Index="6" Min="1.0000000474974513e-03" Max="6.2820000648498535e+00"/>
          <Range Index="7" Min="1.0001000213623047e+02" Max="6.6265002441406250e+02"/>
        </Ranges>
      </Class>
      <Class ClassIndex="2">
        <Ranges>
          <Range Index="0" Min="4.7300000190734863e+00" Max="2.5434099121093750e+03"/>
          <Range Index="1" Min="-3.9930000305175781e+00" Max="3.9909999370574951e+00"/>
          <Range Index="2" Min="0.0000000000000000e+00" Max="6.2829999923706055e+00"/>
          <Range Index="3" Min="0.0000000000000000e+00" Max="2.5873001098632812e+02"/>
          <Range Index="4" Min="0.0000000000000000e+00" Max="6.1000000000000000e+01"/>
          <Range Index="5" Min="0.0000000000000000e+00" Max="9.9900000000000000e+02"/>
          <Range Index="6" Min="0.0000000000000000e+00" Max="6.2829999923706055e+00"/>
          <Range Index="7" Min="1.0001000213623047e+02" Max="1.5854799804687500e+03"/>
        </Ranges>
      </Class>
    </Transform>
  </Transformations>
  <MVAPdfs/>
  <Weights>
    <Layout NLayers="5">
      <Layer Index="0" NNeurons="9">
        <Neuron NSynapses="16">
          -4.0979146070362088e-01 2.1606866586139528e+00 1.7548491231908050e+00 1.5667233630761783e+00 -2.1755770387403501e+00 -1.3598635535484609e+00 -3.6462443953544388e-01 2.1213279826192348e+00 -1.5357094107537825e+00 -2.8321338284065321e+00 -7.3319412348779989e-01 1.8077688771886746e+00 -3.3107992811326020e-01 3.3627234045079460e-02 -2.3736087662995056e+00 5.7104358242350561e-01 
        </Neuron>
        <Neuron NSynapses="16">
          -3.4618831908787268e-01 1.0451808461623024e+00 -1.2770186336536557e-01 2.0965909362170856e-01 -3.4886871001952835e-01 1.4000846210009499e-01 -4.9126625907759394e-03 2.0290199239884762e-01 -1.2137609616019365e+00 -4.8917183197448766e-01 1.2336569671002717e-01 1.3381655246119806e-01 -4.1459736824989921e+00 -1.3095194449244732e-01 -1.3269804982454119e-02 1.0228387776809509e+00 
        </Neuron>
        <Neuron NSynapses="16">
          -2.3676744250983014e-01 6.1782439842387538e-01 -1.7567975644205983e-01 -1.9193236061413776e+00 -1.2893435259300741e+00 5.7758956129848436e+00 -1.8180290272751201e+00 9.2692089633737085e-01 1.0983314295326601e+00 -6.1586231173286410e-01 5.0244810930121107e+00 5.3968262706680559e-01 -3.8072069079081378e-01 -2.7757375800948885e+00 2.0465247476922221e+00 2.1994715325847347e-01 
        </Neuron>
        <Neuron NSynapses="16">
          1.4289891153846987e+00 1.6358482346612979e+00 2.8875835476610638e+00 7.8600622730764602e-01 -1.8702209642470897e+00 1.4987091834174771e+00 -1.1562268539541245e+00 -7.2675241311805172e-01 -1.4549421455205711e+00 -1.9478283999794350e+00 -1.2165750154071334e-01 7.9203608754411292e-02 -9.7825851277367537e-01 5.0779779374892664e-01 -7.9788570541183254e-02 4.5261319764370461e-01 
        </Neuron>
        <Neuron NSynapses="16">
          1.8554177940723984e+00 -5.0779416904326524e-02 -2.8484081513444598e-01 -6.5366681374201063e-01 5.9782190405636937e-01 1.7524723876164539e-01 -2.8811538833600892e-01 -1.2594634760685477e+00 6.5544633733517677e-01 2.6590416657452548e-01 -2.3213617618556145e-01 1.0131525622230615e+00 -3.9573333543219952e-01 -6.1726292448914155e-01 -4.3641070982946867e-01 5.7762955307285146e-01 
        </Neuron>
        <Neuron NSynapses="16">
          1.8542610120119982e+00 3.1464909565169552e-01 -1.7771156537898258e-01 -1.7251643649094557e+00 -9.8298394581294157e-01 1.0544278210845512e+00 1.9788395373822651e+00 -1.0226039609286079e+00 -1.5789114098288757e+00 -7.7338208477842463e-01 -1.3982519216244707e+00 -2.0492069343748396e+00 9.6263659460158968e-01 -1.9001839695327494e+00 -7.2950601396560599e-01 1.5467063941504784e+00 
        </Neuron>
        <Neuron NSynapses="16">
          -8.2911621844271599e-01 -1.3869623594193534e+00 -7.3964922664559674e-02 2.2147942856356373e+00 -1.7022763909664183e+00 -5.8269931934112762e+00 1.1970029061006022e+00 1.4405275742049399e+00 -1.0095842087651976e+00 9.5802673699606777e-01 -4.8577163944485173e+00 -6.1853519885697861e-01 4.9550825533977377e-01 2.3119389616461872e+00 -2.0249402690104938e+00 5.8444805540545675e-01 
        </Neuron>
        <Neuron NSynapses="16">
          2.3053151811414624e-01 1.2742857599198408e-02 -6.4373401669897818e+00 1.4783723132965743e+00 4.6813950579420768e-02 3.7021440542569319e-02 6.5002799638330500e-01 -1.2098687493506164e+00 -1.7093097570611839e+00 -5.9447729587746918e-02 -2.4356860243031844e-01 4.8765022510170457e+00 2.9228912214844244e-01 -1.1333595336573945e+00 -2.0868254086719871e+00 2.7435870077464897e-01 
        </Neuron>
        <Neuron NSynapses="16">
          -1.6716341815084166e+00 1.4604232861211572e+00 -4.1486834233773345e-01 -5.8710726168815774e-01 1.0289801464290467e+00 -2.7514004870334499e+00 -7.3099101787214471e-01 1.1324216212705527e+00 1.9302412079933113e+00 -4.0960446495679141e+00 2.1106264494229423e+00 5.6998946363592768e+00 2.1712250116581946e+00 3.7591880227345956e-02 -3.1099486207027147e+00 3.3370834287591539e-01 
        </Neuron>
      </Layer>
      <Layer Index="1" NNeurons="17">
        <Neuron NSynapses="10">
          -1.4308961901444555e+00 1.5688975245614221e+00 1.2289023689155960e+00 -5.5527723446956945e-01 -3.6473752762242551e-01 1.5397572124131884e-01 -1.3437488693724993e+00 5.8729384328473166e-01 1.7798862095573138e+00 -5.7258517623994698e-01 
        </Neuron>
        <Neuron NSynapses="10">
          -4.7621463142677134e-01 2.8115560024058667e-01 7.4269634536570228e-01 -3.3945784854539451e-01 1.6682764315273830e+00 -1.4947494750172747e+00 1.3908248533227077e+00 2.2158656256866838e-01 1.4040631715026921e+00 5.6781780505621560e-01 
        </Neuron>
        <Neuron NSynapses="10">
          1.1446517674507857e+00 -5.8328311220623119e-01 -5.8886374275226361e-01 1.4661020978547619e+00 -1.0108066505535398e+00 -5.6661892820750515e-01 1.5097730052931713e+00 1.4518281169399530e+00 -3.8015172392234660e+00 2.4840232875467865e+00 
        </Neuron>
        <Neuron NSynapses="10">
          1.8622868081604314e+00 -1.9507254599836010e+00 1.5517405574050054e+00 -2.5948251757606111e-01 8.6836135980494811e-01 -1.7055478718438593e+00 -1.5838147694604667e+00 1.0152677832865253e+00 2.4650901347886656e+00 -2.3551410315023418e+00 
        </Neuron>
        <Neuron NSynapses="10">
          -3.8996149335576075e-02 -5.6292011612927662e-01 8.2695906425073495e-01 1.1001955048971992e+00 -1.0264715955868710e-01 -4.7581189074791336e-01 -1.2615615555949471e+00 1.0229775340712977e+00 2.3685370803931938e+00 8.1277837121535867e-01 
        </Neuron>
        <Neuron NSynapses="10">
          3.2655546467445562e-01 -8.0968555731902370e-01 -2.1959862624480877e+00 1.5711634856054117e+00 -5.0467735301104832e-01 -1.3901630200248885e+00 -7.1220910100133239e-01 7.4499014288035392e-01 -3.6034441892480480e+00 -2.0243688538696492e+00 
        </Neuron>
        <Neuron NSynapses="10">
          1.4792451146927013e+00 8.4137703569940347e-01 7.2644933142463397e-01 -3.8881438711062893e-01 1.6535956722937060e+00 1.0631875747141908e+00 4.2741391853123356e-01 -5.0198158763314259e-02 -1.2823515263130461e+00 -2.0446147700310329e+00 
        </Neuron>
        <Neuron NSynapses="10">
          1.7599624924190507e+00 1.3447498043452430e+00 8.8699741514387631e-01 -2.3378847155456040e-01 2.3242344557194312e+00 -1.7156256253124424e+00 -1.5228696563133139e+00 -2.3459177384722779e-01 -5.0002267864464156e-01 7.0715483245418287e-01 
        </Neuron>
        <Neuron NSynapses="10">
          1.8927498231054010e+00 -1.2135578122421076e+00 1.1912456512703435e+00 -9.1973279604614255e-01 -1.3668742969451102e+00 -1.0739599422515964e+00 7.7796192138685683e-01 -9.4822544818374446e-02 2.1138616057086357e+00 -1.4210344346643540e+00 
        </Neuron>
        <Neuron NSynapses="10">
          1.6067131187777943e+00 -1.7873835555166586e+00 2.2436224875466193e+00 1.1337711050904160e+00 -2.7025410903580216e+00 -1.3061679909359933e+00 -1.9214818253489729e+00 5.3861926471258981e-01 -2.7295633096318968e+00 -1.9219990879184765e+00 
        </Neuron>
        <Neuron NSynapses="10">
          -1.7502851617707453e+00 3.5480381972098268e-02 -3.9233589208320612e+00 -1.8035726690375875e+00 1.4850069785191413e+00 -8.4119873610345886e-01 -3.4582099616338388e-02 -1.5223168927101640e+00 7.7473895712447394e-01 3.3225329551104457e+00 
        </Neuron>
        <Neuron NSynapses="10">
          1.5712191659482464e+00 -8.6904232974530826e-01 -2.0480082436649374e+00 -2.2963577528024990e+00 -2.8847999548493497e-01 -1.6380272407940808e+00 3.7115213004336164e-02 -1.0060076002577281e+00 5.7981533704232175e+00 -1.8840933501160279e-01 
        </Neuron>
        <Neuron NSynapses="10">
          3.8023627915299968e-01 -5.1558288715197442e-01 -1.2354757740188957e+00 4.5048780058247229e-01 1.3520334563290586e+00 -8.3824593533949054e-01 -1.2891093071560626e+00 6.8943990000188138e-01 2.3694487379450053e+00 -4.3545730638694137e-02 
        </Neuron>
        <Neuron NSynapses="10">
          -5.6065814483068876e-01 -2.8437386561170969e-01 2.2742421112294497e+00 1.8057306899453509e+00 6.1842347104302708e-01 -2.8226954568100726e-01 3.6197075888984936e-02 -3.2388615840685579e-02 -2.6806187865844713e+00 -6.3799115293160924e-01 
        </Neuron>
        <Neuron NSynapses="10">
          -1.6318828606374323e+00 -1.3909636840600594e+00 -2.7354962579902713e+00 2.1986032868141394e+00 -2.4608935752152101e+00 1.6710458894584674e+00 -1.6605479916712447e+00 1.3491796993871972e+00 -2.9306707360640964e+00 1.1436779164695725e+00 
        </Neuron>
        <Neuron NSynapses="10">
          8.6685593143984263e-01 -1.8484145306778803e+00 2.1435170591105590e-01 3.2810214994888720e-01 -1.5667288558934840e+00 -1.4810596746284463e+00 -1.7409772463905060e+00 -9.3423934500001049e-01 2.5295815660872849e+00 -7.0048973933909509e-01 
        </Neuron>
        <Neuron NSynapses="10">
          4.3526761221410504e-01 -8.8159096194534081e-01 -8.0013487153145357e-01 -2.5374238762444348e+00 -5.5742775195601824e-01 -1.3871547487686582e+00 7.2655012110918249e-01 -1.5098194960880942e+00 -1.0354704326985849e-02 1.4572634842039425e+00 
        </Neuron>
      </Layer>
      <Layer Index="2" NNeurons="11">
        <Neuron NSynapses="7">
          -7.6813063294274087e-01 -6.6026980677163138e-01 9.4282610172205494e-01 -1.8569795715852333e+00 4.5221821475519974e-01 9.0082203874027611e-01 -1.5909078463722506e+00 
        </Neuron>
        <Neuron NSynapses="7">
          -8.1266376164565435e-01 -7.1357615371779953e-02 -1.1956874561976161e+00 4.6512662220837914e-01 1.9270645794820234e+00 1.3167516364417637e+00 1.5736084849134693e+00 
        </Neuron>
        <Neuron NSynapses="7">
          -1.6533249932310097e+00 3.4493348488525530e+00 -2.6624522321592194e+00 5.1481249456836320e-01 -1.6476939629190412e+00 -1.7406473588985443e+00 -9.3863191005419330e-02 
        </Neuron>
        <Neuron NSynapses="7">
          5.8541139626816463e-01 2.4153326856285480e+00 1.6209007788377250e-01 -8.6122607308237020e-01 -7.6433553131064813e-01 -7.4593200908467838e-01 -3.2678943355934659e-01 
        </Neuron>
        <Neuron NSynapses="7">
          1.6389272716867507e+00 -2.6464994856805397e+00 4.7340659342899116e-01 -6.8398685996415509e-01 -1.1883719216526796e+00 -8.8598119634602193e-02 -3.6324522002135695e-01 
        </Neuron>
        <Neuron NSynapses="7">
          -1.1382245575221681e+00 9.8585567314116318e-01 1.6653898971031549e+00 6.7564357520476892e-01 -1.5231927254870048e-01 -9.4038456344623667e-01 -1.4711183793822769e+00 
        </Neuron>
        <Neuron NSynapses="7">
          -1.7617535854651796e+00 5.2094469977713120e-01 -5.3351353861228479e-01 -1.2370861387133967e+00 5.5066108671369085e-01 -1.7042745965023491e+00 -1.0957503593797548e+00 
        </Neuron>
        <Neuron NSynapses="7">
          -2.3915047625072350e+00 1.7542106222734588e+00 -1.9022913756838531e+00 -1.7616692926383344e+00 -1.4340024671223246e+00 -1.1373221961659856e+00 -2.2468887025010051e+00 
        </Neuron>
        <Neuron NSynapses="7">
          7.1846405841814309e-01 -6.7253881870762005e+00 -1.2248172290409609e+00 2.7918187366344736e+00 3.3919248588228940e-01 3.0731285674203151e-01 -8.0676314134706023e-02 
        </Neuron>
        <Neuron NSynapses="7">
          3.9402268471678437e-01 3.4602337434240358e+00 -1.5828469600931153e-01 5.9181897144248707e-02 -1.6763942565513736e+00 -1.8121952069069265e+00 3.9981450685404535e-01 
        </Neuron>
        <Neuron NSynapses="7">
          -1.9793866496612661e-01 -1.6788463254825853e-01 9.0757016515562991e-02 7.4614570745439901e-01 7.0321614007220423e-01 -1.3944227131247879e+00 1.1903661836945096e+00 
        </Neuron>
      </Layer>
      <Layer Index="3" NNeurons="8">
        <Neuron NSynapses="1">
          -6.8286470654780372e-03 
        </Neuron>
        <Neuron NSynapses="1">
          -1.3489643355080485e+00 
        </Neuron>
        <Neuron NSynapses="1">
          -4.8753769604565078e-01 
        </Neuron>
        <Neuron NSynapses="1">
          -8.3973201668135322e-01 
        </Neuron>
        <Neuron NSynapses="1">
          3.7946859556063878e-01 
        </Neuron>
        <Neuron NSynapses="1">
          3.8439984165062607e-01 
        </Neuron>
        <Neuron NSynapses="1">
          7.7354411056959571e-01 
        </Neuron>
        <Neuron NSynapses="1">
          1.4140935565239221e+00 
        </Neuron>
      </Layer>
      <Layer Index="4" NNeurons="1">
        <Neuron NSynapses="0"/>
      </Layer>
    </Layout>
  </Weights>
</MethodSetup>
