<?xml version="1.0"?>
<MethodSetup Method="MLP::4 Layers, 32 Nodes Distributed">
  <GeneralInfo>
    <Info name="TMVA Release" value="4.2.0 [262656]"/>
    <Info name="ROOT Release" value="5.34/18 [336402]"/>
    <Info name="Creator" value="zxb0111"/>
    <Info name="Date" value="Thu Dec  4 21:53:15 2014"/>
    <Info name="Host" value="Linux localhost.localdomain 2.6.32-431.17.1.el6.x86_64 #1 SMP Wed May 7 14:14:17 CDT 2014 x86_64 x86_64 x86_64 GNU/Linux"/>
    <Info name="Dir" value="/home/zxb0111/seminar"/>
    <Info name="Training events" value="34086"/>
    <Info name="TrainingTime" value="3.67398203e+02"/>
    <Info name="AnalysisType" value="Classification"/>
  </GeneralInfo>
  <Options>
    <Option name="NCycles" modified="Yes">600</Option>
    <Option name="HiddenLayers" modified="Yes">N,N,N,N</Option>
    <Option name="NeuronType" modified="Yes">sigmoid</Option>
    <Option name="RandomSeed" modified="No">1</Option>
    <Option name="EstimatorType" modified="No">MSE</Option>
    <Option name="NeuronInputType" modified="No">sum</Option>
    <Option name="V" modified="No">False</Option>
    <Option name="VerbosityLevel" modified="No">Default</Option>
    <Option name="VarTransform" modified="Yes">N</Option>
    <Option name="H" modified="No">False</Option>
    <Option name="CreateMVAPdfs" modified="No">False</Option>
    <Option name="IgnoreNegWeightsInTraining" modified="No">False</Option>
    <Option name="TrainingMethod" modified="No">BP</Option>
    <Option name="LearningRate" modified="No">2.000000e-02</Option>
    <Option name="DecayRate" modified="No">1.000000e-02</Option>
    <Option name="TestRate" modified="Yes">5</Option>
    <Option name="EpochMonitoring" modified="No">False</Option>
    <Option name="Sampling" modified="No">1.000000e+00</Option>
    <Option name="SamplingEpoch" modified="No">1.000000e+00</Option>
    <Option name="SamplingImportance" modified="No">1.000000e+00</Option>
    <Option name="SamplingTraining" modified="No">True</Option>
    <Option name="SamplingTesting" modified="No">False</Option>
    <Option name="ResetStep" modified="No">50</Option>
    <Option name="Tau" modified="No">3.000000e+00</Option>
    <Option name="BPMode" modified="No">sequential</Option>
    <Option name="BatchSize" modified="No">-1</Option>
    <Option name="ConvergenceImprove" modified="No">1.000000e-30</Option>
    <Option name="ConvergenceTests" modified="No">-1</Option>
    <Option name="UseRegulator" modified="Yes">False</Option>
    <Option name="UpdateLimit" modified="No">10000</Option>
    <Option name="CalculateErrors" modified="No">False</Option>
    <Option name="WeightRange" modified="No">1.000000e+00</Option>
  </Options>
  <Variables NVar="8">
    <Variable VarIndex="0" Expression="Jet.PT" Label="Jet.PT" Title="Jet.PT" Unit="" Internal="Jet.PT" Type="F" Min="4.73000002e+00" Max="2.54340991e+03"/>
    <Variable VarIndex="1" Expression="Jet.Eta" Label="Jet.Eta" Title="Jet.Eta" Unit="" Internal="Jet.Eta" Type="F" Min="-3.99300003e+00" Max="3.99099994e+00"/>
    <Variable VarIndex="2" Expression="Jet.Phi" Label="Jet.Phi" Title="Jet.Phi" Unit="" Internal="Jet.Phi" Type="F" Min="0.00000000e+00" Max="6.28299999e+00"/>
    <Variable VarIndex="3" Expression="Jet.Mass" Label="Jet.Mass" Title="Jet.Mass" Unit="" Internal="Jet.Mass" Type="F" Min="0.00000000e+00" Max="2.58730011e+02"/>
    <Variable VarIndex="4" Expression="Jet.Ntrk" Label="Jet.Ntrk" Title="Jet.Ntrk" Unit="" Internal="Jet.Ntrk" Type="F" Min="0.00000000e+00" Max="6.10000000e+01"/>
    <Variable VarIndex="5" Expression="Jet.EhadOverEem" Label="Jet.EhadOverEem" Title="Jet.EhadOverEem" Unit="" Internal="Jet.EhadOverEem" Type="F" Min="0.00000000e+00" Max="9.99000000e+02"/>
    <Variable VarIndex="6" Expression="MissingET.Phi" Label="MissingET.Phi" Title="MissingET.Phi" Unit="" Internal="MissingET.Phi" Type="F" Min="0.00000000e+00" Max="6.28299999e+00"/>
    <Variable VarIndex="7" Expression="MissingET.MET" Label="MissingET.MET" Title="MissingET.MET" Unit="" Internal="MissingET.MET" Type="F" Min="1.00010002e+02" Max="1.58547998e+03"/>
  </Variables>
  <Spectators NSpec="0"/>
  <Classes NClass="2">
    <Class Name="Signal" Index="0"/>
    <Class Name="Background" Index="1"/>
  </Classes>
  <Transformations NTransformations="1">
    <Transform Name="Normalize">
      <Selection>
        <Input NInputs="8">
          <Input Type="Variable" Label="Jet.PT" Expression="Jet.PT"/>
          <Input Type="Variable" Label="Jet.Eta" Expression="Jet.Eta"/>
          <Input Type="Variable" Label="Jet.Phi" Expression="Jet.Phi"/>
          <Input Type="Variable" Label="Jet.Mass" Expression="Jet.Mass"/>
          <Input Type="Variable" Label="Jet.Ntrk" Expression="Jet.Ntrk"/>
          <Input Type="Variable" Label="Jet.EhadOverEem" Expression="Jet.EhadOverEem"/>
          <Input Type="Variable" Label="MissingET.Phi" Expression="MissingET.Phi"/>
          <Input Type="Variable" Label="MissingET.MET" Expression="MissingET.MET"/>
        </Input>
        <Output NOutputs="8">
          <Output Type="Variable" Label="Jet.PT" Expression="Jet.PT"/>
          <Output Type="Variable" Label="Jet.Eta" Expression="Jet.Eta"/>
          <Output Type="Variable" Label="Jet.Phi" Expression="Jet.Phi"/>
          <Output Type="Variable" Label="Jet.Mass" Expression="Jet.Mass"/>
          <Output Type="Variable" Label="Jet.Ntrk" Expression="Jet.Ntrk"/>
          <Output Type="Variable" Label="Jet.EhadOverEem" Expression="Jet.EhadOverEem"/>
          <Output Type="Variable" Label="MissingET.Phi" Expression="MissingET.Phi"/>
          <Output Type="Variable" Label="MissingET.MET" Expression="MissingET.MET"/>
        </Output>
      </Selection>
      <Class ClassIndex="0">
        <Ranges>
          <Range Index="0" Min="5.0000000000000000e+00" Max="2.5434099121093750e+03"/>
          <Range Index="1" Min="-3.9909999370574951e+00" Max="3.9909999370574951e+00"/>
          <Range Index="2" Min="0.0000000000000000e+00" Max="6.2829999923706055e+00"/>
          <Range Index="3" Min="0.0000000000000000e+00" Max="2.5873001098632812e+02"/>
          <Range Index="4" Min="0.0000000000000000e+00" Max="6.1000000000000000e+01"/>
          <Range Index="5" Min="0.0000000000000000e+00" Max="9.9900000000000000e+02"/>
          <Range Index="6" Min="0.0000000000000000e+00" Max="6.2829999923706055e+00"/>
          <Range Index="7" Min="1.0001999664306641e+02" Max="1.5854799804687500e+03"/>
        </Ranges>
      </Class>
      <Class ClassIndex="1">
        <Ranges>
          <Range Index="0" Min="4.7300000190734863e+00" Max="8.1752001953125000e+02"/>
          <Range Index="1" Min="-3.9930000305175781e+00" Max="3.9900000095367432e+00"/>
          <Range Index="2" Min="0.0000000000000000e+00" Max="6.2829999923706055e+00"/>
          <Range Index="3" Min="0.0000000000000000e+00" Max="1.5936999511718750e+02"/>
          <Range Index="4" Min="0.0000000000000000e+00" Max="5.9000000000000000e+01"/>
          <Range Index="5" Min="0.0000000000000000e+00" Max="9.9900000000000000e+02"/>
          <Range Index="6" Min="1.0000000474974513e-03" Max="6.2820000648498535e+00"/>
          <Range Index="7" Min="1.0001000213623047e+02" Max="6.6265002441406250e+02"/>
        </Ranges>
      </Class>
      <Class ClassIndex="2">
        <Ranges>
          <Range Index="0" Min="4.7300000190734863e+00" Max="2.5434099121093750e+03"/>
          <Range Index="1" Min="-3.9930000305175781e+00" Max="3.9909999370574951e+00"/>
          <Range Index="2" Min="0.0000000000000000e+00" Max="6.2829999923706055e+00"/>
          <Range Index="3" Min="0.0000000000000000e+00" Max="2.5873001098632812e+02"/>
          <Range Index="4" Min="0.0000000000000000e+00" Max="6.1000000000000000e+01"/>
          <Range Index="5" Min="0.0000000000000000e+00" Max="9.9900000000000000e+02"/>
          <Range Index="6" Min="0.0000000000000000e+00" Max="6.2829999923706055e+00"/>
          <Range Index="7" Min="1.0001000213623047e+02" Max="1.5854799804687500e+03"/>
        </Ranges>
      </Class>
    </Transform>
  </Transformations>
  <MVAPdfs/>
  <Weights>
    <Layout NLayers="6">
      <Layer Index="0" NNeurons="9">
        <Neuron NSynapses="8">
          -2.4824121049436565e+00 4.3987773799025103e+00 1.1005444793394248e+00 1.9090983270373432e+00 -1.9122961389943214e+00 7.3657899914406340e+00 2.4929789062676855e-01 2.0137043392743088e+00 
        </Neuron>
        <Neuron NSynapses="8">
          3.2349445057846253e-02 -1.2734159294888159e-02 -1.3738635068948839e+00 -1.5262217107495207e-01 -1.3370644210923373e+00 4.0532004260694525e-02 2.3505961563586434e-03 7.5341579047268525e-01 
        </Neuron>
        <Neuron NSynapses="8">
          1.1892976276917857e+00 -4.7944251244181328e-02 3.9853013741912074e-01 1.6065556582143270e+00 -2.4451211289507815e-01 5.3282136888644797e-02 -6.1294661187757915e-01 1.5320448356105981e-01 
        </Neuron>
        <Neuron NSynapses="8">
          -1.1681549215410871e+00 1.7307758261474928e+00 1.7235316751266787e+00 -1.4200327795329912e+00 -1.8093916557211505e+00 9.2388551857767320e-01 1.0624766644732104e+00 1.7183657376162611e+00 
        </Neuron>
        <Neuron NSynapses="8">
          -2.6706477215191476e-01 -2.9569482744206921e-01 4.2841415426214668e-01 1.2793792237873201e+00 -1.4039903080946405e+00 5.3567863629828383e-01 -6.3988227494658712e-01 1.1574479661956567e+00 
        </Neuron>
        <Neuron NSynapses="8">
          2.3220346001505350e+00 1.9615672859121608e-01 1.9451581525915260e+00 6.9761789989607592e-01 -6.7028009355190488e-01 -4.2198314773759087e+00 7.9876729040518479e-01 2.0086254159472614e-01 
        </Neuron>
        <Neuron NSynapses="8">
          1.2780373612168743e+00 -1.5430963189441588e-01 1.3888615300225853e+00 1.5522684917394429e+00 -1.7462375089168238e+00 5.4944462520553100e-02 -7.8449425867158407e-01 -9.2081692355418920e-01 
        </Neuron>
        <Neuron NSynapses="8">
          -1.5613142025052495e+00 -8.4884830840782346e+00 1.7338885339805274e+00 2.1964759963120120e+00 -1.5192729204024500e+00 1.8876598331201224e+00 1.1896094901496628e+00 7.7935093299512981e-01 
        </Neuron>
        <Neuron NSynapses="8">
          2.6110736357288439e-01 -4.0332073586827877e-01 -8.4935309758353686e-02 -1.5360414298074596e-01 6.7894328899677248e-01 3.0106185958243095e+00 -5.4170450703217288e-01 -1.5718586206037339e+00 
        </Neuron>
      </Layer>
      <Layer Index="1" NNeurons="9">
        <Neuron NSynapses="8">
          6.3841886496965417e-01 1.0291722407805206e+00 1.3059090315441069e+00 -6.3463913764303659e-01 -2.0913864842515757e+00 -1.6586608763507065e+00 6.6963368822695457e-01 4.0443835116243310e-01 
        </Neuron>
        <Neuron NSynapses="8">
          1.9290198669895795e+00 4.3395722136808113e-01 2.9318287034710244e+00 -3.4019487090773821e+00 -1.5882383435340643e+00 1.1698457061991553e-01 7.9492758798973584e-01 -1.4921550527854093e+00 
        </Neuron>
        <Neuron NSynapses="8">
          -1.5658350140028323e+00 -1.6857540284624879e+00 -2.2973998439228874e-01 -7.4436900185112870e-02 1.5874063048070224e+00 -1.5873687845943794e+00 -8.3437104551862129e-01 1.5763266670648770e+00 
        </Neuron>
        <Neuron NSynapses="8">
          -8.3852809419545971e-01 -1.4329162856370661e+00 -2.6824371813440187e+00 1.5623734281912172e+00 -1.5487152385374070e+00 -1.6996917106413996e+00 8.2695361367552689e-01 1.6462597607536369e+00 
        </Neuron>
        <Neuron NSynapses="8">
          -1.3068096517794843e+00 1.5986331908321569e+00 -2.1386465302162398e+00 2.5490513059306119e-01 2.6498558465622613e-01 5.0516023158552736e-01 -2.0571230391546771e+00 8.0700442957471308e-02 
        </Neuron>
        <Neuron NSynapses="8">
          2.3769717989077924e-01 6.9002564800328692e-01 -3.7398272611372660e+00 4.8437143723485878e+00 1.0864480632608038e+00 -1.0014561758881169e+00 9.3076721524636241e-01 -1.4024371836758747e+00 
        </Neuron>
        <Neuron NSynapses="8">
          -1.5601458773749848e+00 9.4154841827862448e-02 -3.1999133055341594e-01 1.6118235284716829e+00 5.8163238722206345e-01 2.0321894981579786e-03 -4.4556038852937491e-01 1.8551652587682499e-01 
        </Neuron>
        <Neuron NSynapses="8">
          -1.7992129016819292e+00 1.0696761222340534e+00 8.2029189706176966e-02 -1.7406702268991205e+00 6.6881896824087239e-01 -1.4354430407705649e+00 6.1270531702482298e-02 1.1587695396137194e+00 
        </Neuron>
        <Neuron NSynapses="8">
          1.6285181094983865e+00 -1.9204786839041070e+00 -8.5751253422197993e-01 2.5967714878335726e+00 1.8991563608458264e+00 3.3992342035808071e-01 -1.7237011660994439e+00 -4.0376686511123999e-01 
        </Neuron>
      </Layer>
      <Layer Index="2" NNeurons="9">
        <Neuron NSynapses="8">
          -1.7054785913809982e+00 1.3227702836466133e+00 1.2402987853017293e+00 1.7145163141189604e-01 -6.5261865317513532e-02 -4.5805028505337270e-02 -1.5960185108729608e+00 5.6541596773894454e-01 
        </Neuron>
        <Neuron NSynapses="8">
          1.5159593846251289e+00 -7.5932264655007886e-01 -5.9459950121220362e-01 7.9524595864994185e-01 1.3283788221604442e+00 1.9042861499574729e-01 6.7102848516313185e-01 -1.5101221985420761e+00 
        </Neuron>
        <Neuron NSynapses="8">
          2.0406072866203222e+00 1.2383216027790520e+00 5.8984258726797423e-01 3.8159882577945992e-01 2.1829694062750917e+00 -2.3483061392248823e+00 -1.0957168714010745e+00 2.3371267390462980e+00 
        </Neuron>
        <Neuron NSynapses="8">
          -1.9373121511426807e+00 -1.4362137276343399e+00 1.4798014602438854e+00 2.1521977235926317e+00 -1.1655580751418280e+00 3.1186528452615985e+00 2.0971743244192247e+00 -3.4887862587460892e+00 
        </Neuron>
        <Neuron NSynapses="8">
          1.7360872958041509e-01 -4.3179113177504219e-01 3.7641458299934621e-01 -1.1720877773949523e+00 -1.7029611246599317e+00 1.5258945965454351e+00 1.8066452621414888e+00 -2.1773738027219336e+00 
        </Neuron>
        <Neuron NSynapses="8">
          -2.6276354798272672e-01 -7.1558951372052948e-01 3.0286265969915149e-01 1.8276112594617433e+00 -2.2286303773541832e-01 -6.3689997771677709e-01 -1.1538615074379417e+00 1.0380062804976391e+00 
        </Neuron>
        <Neuron NSynapses="8">
          1.5097822180381142e+00 9.9398027796166422e-01 2.9253163551181605e-01 -6.5183951493056147e-01 -1.9768476416681806e+00 1.1415340009885335e+00 4.4433268166899864e-01 -1.4222128816752042e+00 
        </Neuron>
        <Neuron NSynapses="8">
          -1.2137667992759460e+00 -1.5578608608115753e-02 2.1391146633106945e-02 -1.4329916451023952e+00 1.3926376653509343e+00 1.4675773798213219e+00 -5.7834915837839129e-01 -4.4320717828850870e-01 
        </Neuron>
        <Neuron NSynapses="8">
          9.2365359690140403e-01 4.8103538715688693e-01 4.1799095720440754e-01 9.1064186956818949e-01 -1.7923390824988168e+00 -6.0782359694808863e-01 1.4921834804854079e+00 9.5603594021175864e-01 
        </Neuron>
      </Layer>
      <Layer Index="3" NNeurons="9">
        <Neuron NSynapses="8">
          1.6984362190539828e+00 1.6088434414342542e-01 1.6702905746514418e+00 -1.7265781383129242e+00 -1.4975905987155551e+00 -1.5247830457988026e-01 -1.4799644621026429e+00 5.1608047775304422e-01 
        </Neuron>
        <Neuron NSynapses="8">
          1.9755377181757408e+00 -1.4894698673152735e+00 2.9196008555354147e-01 -2.0029718863151297e-01 -1.8444017326068249e+00 -1.2900114898016650e+00 8.8176327155668877e-01 -3.7466899122429498e-01 
        </Neuron>
        <Neuron NSynapses="8">
          6.4347235592715313e-01 -1.0096057847921385e+00 1.1315259779098326e+00 -1.6699425066999827e+00 4.2046563726840774e-01 -9.5642852131053335e-02 -1.6606133105465675e+00 -2.0705238763292795e+00 
        </Neuron>
        <Neuron NSynapses="8">
          -1.8455940819728207e+00 -3.5358561898259505e-01 -2.2676267066246671e+00 -1.4636641271822317e+00 -2.2138353941977345e+00 -2.1760977757096442e-01 -1.3073549721740210e+00 -2.0507335095584800e+00 
        </Neuron>
        <Neuron NSynapses="8">
          2.3340414823861702e+00 -9.6213970407413285e-01 -1.6324385504294445e-01 -1.1319058089974741e+00 2.1126296213100332e-01 1.8591254556936545e+00 1.3603046920768760e+00 -9.1966434542398490e-01 
        </Neuron>
        <Neuron NSynapses="8">
          -3.2914628968678410e+00 -7.7515926867166141e-01 -1.1295994967729006e+00 -1.4275681230595907e+00 -9.3091591877424634e-02 1.1844688695622772e-01 1.7647161916613430e+00 -1.0518893415069774e+00 
        </Neuron>
        <Neuron NSynapses="8">
          -1.1777656065906013e+00 -2.8986823751277679e-01 -2.2771775636105476e+00 1.4327365107965324e+00 7.4471592594357683e-01 -1.0224160763945396e+00 -1.2207712130387063e+00 7.9746953416529320e-02 
        </Neuron>
        <Neuron NSynapses="8">
          3.1906038154445313e+00 4.2600262911917908e-01 -7.4694863277787604e-01 -3.2386888689994459e-01 1.3988998996387039e+00 1.0552354154386614e+00 1.0543184960044569e+00 -4.1538503269864374e-01 
        </Neuron>
        <Neuron NSynapses="8">
          -5.3270625536474478e-02 -1.3520375030224452e-01 -2.0718478424969873e+00 -4.1766476969388444e-01 -2.2119060196559523e+00 -1.5667892688513860e+00 -1.6771533992546046e+00 9.4507731973362452e-01 
        </Neuron>
      </Layer>
      <Layer Index="4" NNeurons="9">
        <Neuron NSynapses="1">
          -1.0988582268319336e+00 
        </Neuron>
        <Neuron NSynapses="1">
          1.7699936048926062e+00 
        </Neuron>
        <Neuron NSynapses="1">
          -1.0293359355172105e+00 
        </Neuron>
        <Neuron NSynapses="1">
          1.2456974652870332e+00 
        </Neuron>
        <Neuron NSynapses="1">
          -5.0577104717393884e-01 
        </Neuron>
        <Neuron NSynapses="1">
          6.2875507917484963e-01 
        </Neuron>
        <Neuron NSynapses="1">
          7.5203269471174061e-01 
        </Neuron>
        <Neuron NSynapses="1">
          -9.1897210765173176e-01 
        </Neuron>
        <Neuron NSynapses="1">
          8.7564073484560134e-01 
        </Neuron>
      </Layer>
      <Layer Index="5" NNeurons="1">
        <Neuron NSynapses="0"/>
      </Layer>
    </Layout>
  </Weights>
</MethodSetup>
